<?xml version="1.0"?>
<opencv_storage>
<my_svm type_id="opencv-ml-svm">
  <svm_type>C_SVC</svm_type>
  <kernel><type>LINEAR</type></kernel>
  <C>1.0000000000000001e-01</C>
  <term_criteria><epsilon>2.2204460492503131e-16</epsilon>
    <iterations>100000</iterations></term_criteria>
  <var_all>3780</var_all>
  <var_count>3780</var_count>
  <class_count>2</class_count>
  <class_labels type_id="opencv-matrix">
    <rows>1</rows>
    <cols>2</cols>
    <dt>i</dt>
    <data>
      0 1</data></class_labels>
  <sv_total>1</sv_total>
  <support_vectors>
    <_>
      -1.70095302e-02 1.34510850e-03 2.45009828e-02 1.35064777e-02
      1.10370675e-02 5.40784094e-03 6.49401639e-03 6.96441019e-03
      1.32117588e-02 -1.54637713e-02 -5.97759662e-03 1.87085401e-02
      1.24926800e-02 8.79264623e-03 6.97938120e-03 6.33934792e-03
      5.93871344e-03 -7.38584786e-05 -1.49599900e-02 -5.35094412e-03
      1.68531183e-02 1.12477150e-02 5.86740626e-03 4.19689901e-03
      6.91186031e-03 9.73385479e-03 8.19069333e-03 -1.25515750e-02
      -1.58440303e-02 1.08067133e-02 8.86237435e-03 6.08602259e-03
      7.42377201e-03 7.81060802e-03 3.97143885e-03 1.35841873e-02
      -1.09002572e-02 1.55757111e-03 9.40650888e-03 8.05137679e-03
      6.05781935e-03 4.75260383e-03 4.03015222e-03 3.34976683e-03
      -1.15627823e-02 -4.41378728e-03 -3.10551422e-03 8.37249495e-03
      5.77984564e-03 5.31513663e-03 3.92435165e-03 2.89636035e-03
      2.52286554e-03 9.71035473e-03 -1.23156188e-02 -1.17330421e-02
      2.78959889e-03 4.70610429e-03 3.52488109e-03 6.75816648e-03
      7.11774966e-03 8.17148015e-03 -4.57327673e-03 -5.92716178e-03
      -2.78957025e-03 3.18115554e-03 4.83059011e-05 2.08875956e-03
      2.29502586e-03 5.25181554e-03 9.60179977e-03 1.74963456e-02
      -4.02353285e-03 -4.24453104e-03 6.56520855e-03 3.60605191e-03
      5.14957774e-03 3.71925789e-03 2.91266199e-03 2.09172675e-03
      5.43015962e-03 -4.02353285e-03 2.01539863e-02 1.19410432e-03
      -6.98941015e-03 2.88672338e-04 5.62840095e-03 4.59361682e-03
      4.66958014e-03 -2.48911846e-02 -3.47589818e-03 -7.30432849e-03
      -2.44675972e-03 -1.68339605e-03 4.61355923e-03 2.72656046e-03
      3.71488510e-03 1.13960030e-03 7.47637684e-03 3.05070286e-03
      -8.92557960e-04 5.12572378e-03 1.12824291e-02 2.87188776e-03
      1.54232020e-02 8.21966119e-03 2.97080562e-03 1.93901907e-03
      1.26997766e-03 8.58742651e-03 2.65846308e-03 5.52136271e-07
      -2.35216157e-03 7.16103707e-04 2.91941315e-03 1.87983527e-03
      -1.05951317e-02 1.30408781e-03 2.90920865e-03 6.76026801e-03
      5.27765788e-03 -6.95003837e-04 1.06562406e-03 1.64705457e-03
      7.74758076e-03 7.00111967e-03 -1.66866276e-02 7.25660427e-03
      5.26147254e-04 2.89308140e-03 -1.04841525e-02 5.69660170e-03
      2.05452088e-03 -2.58517824e-03 -3.68329021e-03 -6.54570339e-03
      1.94675534e-03 1.93579891e-03 -2.83759087e-03 -1.66344196e-02
      -3.00466112e-04 -1.09064160e-03 -4.22230549e-03 -1.05574087e-03
      4.56193835e-03 -6.98396238e-03 -8.17236304e-03 -1.92726788e-03
      2.09092643e-04 -4.38574527e-04 -9.21760499e-03 9.53872222e-03
      1.99599359e-02 8.51607975e-03 -2.52939593e-02 -1.02235759e-02
      6.32569008e-03 6.00845227e-03 2.03053025e-03 -1.28947869e-02
      5.60792629e-03 1.13475062e-02 4.51583136e-03 -1.78697668e-02
      1.36405835e-03 -1.03892274e-02 -3.88512062e-03 3.15599202e-04
      -7.96121079e-03 -6.42606709e-03 3.75817018e-03 1.27043519e-02
      -1.18820854e-02 6.56931242e-03 -2.63210619e-03 3.60134803e-03
      1.02694228e-03 -1.61401685e-02 -1.06269894e-02 -4.45572753e-03
      4.29807224e-05 -2.08395487e-03 6.13577617e-03 9.87325329e-03
      7.67251058e-03 6.24574861e-03 1.69061392e-03 6.60105096e-03
      3.20121879e-04 1.05318206e-03 -3.89272952e-03 -3.30827497e-05
      8.28976103e-04 6.43464737e-03 5.49488980e-03 -3.54144070e-03
      -2.67684949e-03 7.44775683e-03 -1.64420751e-03 -9.54826083e-03
      1.26650499e-03 6.82753371e-03 6.55427389e-03 1.75479725e-02
      -3.30413436e-03 -1.41185066e-02 -1.93361584e-02 -1.38655435e-02
      -2.31312634e-03 -1.56271388e-03 7.88896251e-03 4.02035611e-03
      3.13541517e-02 1.40432501e-02 -2.19102670e-03 -1.15858037e-02
      4.67902003e-03 -1.46398107e-02 -4.69544949e-03 1.88694522e-03
      3.64719215e-03 3.17141344e-03 -7.39385141e-03 -9.59487911e-03
      1.36990240e-02 9.38666146e-03 -6.70402357e-03 6.25250814e-03
      5.84636116e-03 6.66633481e-03 5.31425059e-04 -4.99670859e-03
      3.81925190e-03 1.30867669e-02 -2.72828806e-03 5.82160335e-03
      -9.08028241e-03 5.74513990e-03 -4.41956799e-03 1.43121742e-02
      1.48985246e-02 3.77955294e-04 -1.25929911e-03 -8.70774034e-03
      -3.52741103e-04 -5.75900730e-03 4.87470208e-03 8.20354689e-05
      -1.03956563e-02 -1.75317712e-02 -1.47532830e-02 -1.46454042e-02
      2.96397088e-03 -9.08213493e-04 1.24038896e-02 4.87543922e-03
      1.15449177e-02 -8.28311895e-04 -9.44549311e-03 -6.82149315e-03
      7.98890716e-04 1.28971878e-02 -8.70772917e-03 -7.36394245e-03
      -1.32672279e-03 3.88881215e-03 3.56290955e-03 -2.92822393e-03
      -8.92867800e-03 -3.12835677e-04 -4.78419894e-03 -9.09261964e-03
      6.55810442e-03 3.06667597e-03 1.68040278e-03 -1.47202816e-02
      4.97886306e-03 -1.21615920e-02 -2.73214001e-02 1.13402838e-02
      -2.39866925e-03 1.06336195e-02 5.83725669e-05 -3.68493795e-03
      -6.05233945e-04 -6.65207906e-03 -6.98644854e-03 -1.49666751e-02
      9.20058228e-03 -2.05178931e-02 -2.07155459e-02 -7.84044713e-03
      -1.50741050e-02 6.39013201e-03 -9.54676513e-03 -4.72597918e-03
      4.22271667e-03 -3.23845865e-03 -2.97723096e-02 -1.68803670e-02
      -7.65422918e-03 -3.63269597e-02 -1.22643542e-02 -2.57763248e-02
      -9.39682499e-03 4.22271667e-03 1.38515066e-02 2.76797055e-03
      -1.06597447e-03 -4.48532046e-05 -6.02212362e-03 -5.62093128e-03
      -6.24762848e-03 -6.06429123e-04 5.47576882e-03 2.47129686e-02
      1.48454672e-02 -2.22896738e-03 -6.76962081e-04 1.69652421e-03
      -5.42306481e-03 -1.00944089e-02 -3.72365816e-03 1.75591595e-02
      2.94622201e-02 9.82462149e-03 1.12220529e-03 -7.78863113e-03
      -2.64783539e-02 -2.33705919e-02 -4.12810408e-02 -3.83819565e-02
      7.48826843e-03 5.83008165e-03 1.08849327e-03 -1.38426991e-02
      -3.07273585e-03 -2.03232132e-02 -1.65927652e-02 -1.57044698e-02
      -4.62557599e-02 1.20050390e-03 3.79285999e-02 2.06309445e-02
      3.08963528e-04 -6.32231543e-03 -4.32481815e-04 -5.50135411e-03
      -6.04451867e-03 -4.11074562e-03 2.84432340e-02 3.66339390e-03
      1.48714455e-02 8.47019907e-03 4.84415237e-03 6.72807626e-04
      -5.46224369e-03 -4.87631140e-03 -1.20085087e-02 8.38171691e-04
      -2.72581168e-02 -2.72587482e-02 -1.41089680e-02 -1.39847875e-03
      -1.28111653e-02 -2.90409080e-03 1.37931779e-02 -1.48665728e-02
      -5.87399537e-03 8.59381325e-05 -2.06508813e-03 6.14374503e-03
      1.70945950e-05 2.34450540e-03 5.52113634e-04 -4.52765125e-05
      5.88590233e-03 1.76448729e-02 5.12360036e-03 -2.41625216e-03
      4.59262170e-03 5.04902611e-03 -9.60920588e-04 -3.33205704e-03
      -3.18807620e-03 -1.17591182e-02 -1.74808991e-03 -2.88293185e-03
      -8.22947361e-03 -5.84817259e-03 -6.32251613e-04 -3.16548743e-03
      4.59144125e-03 4.07927763e-03 -6.08438801e-04 1.80488098e-02
      2.91560631e-04 1.51112266e-02 -1.06714491e-03 2.21998314e-03
      -1.45247765e-02 -1.59312896e-02 -1.82120074e-02 -9.10734572e-03
      3.18115540e-02 2.09382586e-02 1.23349205e-02 2.37913639e-03
      -6.55424222e-03 -3.52547690e-02 -2.43481304e-02 -3.15756984e-02
      -7.76304398e-03 3.16654146e-02 9.58241813e-04 -2.36077085e-02
      -1.24721313e-02 5.34218503e-04 -1.53479585e-03 2.20182282e-03
      -6.31840527e-03 -8.49870034e-03 1.17180357e-02 -1.43587980e-02
      -1.63219254e-02 -7.74862245e-03 -1.02083723e-03 -3.07832821e-03
      6.88101770e-03 -1.51417181e-02 -2.24809088e-02 -5.17488504e-03
      4.68010716e-02 1.17787179e-02 8.63713399e-03 -1.12288753e-02
      -2.74929609e-02 -9.82162636e-03 -6.88335998e-03 -3.18206549e-02
      3.25447842e-02 3.74874286e-02 5.04072895e-03 1.29736988e-02
      -3.64614022e-03 -1.65536553e-02 -1.17809400e-02 8.58072378e-03
      -2.85481848e-02 8.69162753e-03 -1.41275674e-02 -1.14052305e-02
      1.91453157e-03 9.08527710e-03 3.44521157e-03 9.19133611e-03
      6.06485456e-03 -2.55660638e-02 -1.70780923e-02 -1.08371628e-02
      -7.72678619e-03 4.90360195e-03 3.91195109e-03 5.02959359e-04
      -4.47031949e-03 2.45405324e-02 -1.45855332e-02 -1.48288133e-02
      2.32002009e-02 1.00299986e-02 8.74860585e-03 4.12184652e-03
      -3.12805385e-03 -4.27114731e-03 7.77617097e-03 -1.61904562e-02
      -5.22571243e-03 -1.26999626e-02 1.98910870e-02 9.62714665e-03
      3.13886348e-03 -8.39008391e-03 -1.80027692e-03 -6.34250406e-04
      3.73765174e-03 -4.43187961e-03 -1.06500769e-02 6.46185875e-03
      4.54463391e-03 -1.76138291e-03 -1.32129717e-04 -1.78772805e-03
      1.97897051e-02 8.75497423e-03 -1.12087307e-02 -3.27132531e-02
      7.74479425e-03 7.90568069e-03 1.68987969e-03 2.89665582e-03
      6.69779815e-03 1.13585396e-02 1.08673926e-02 -9.49385390e-03
      4.35106223e-03 2.61618383e-02 8.56237207e-03 5.93173830e-03
      -7.02781370e-04 6.83579501e-03 1.78563595e-03 -1.97199348e-04
      -5.84616093e-03 7.56591978e-03 2.85926349e-02 1.22777019e-02
      9.86264832e-03 1.05446940e-02 5.09058172e-03 1.45570363e-03
      -7.25902710e-03 8.00433394e-04 -1.03916731e-02 8.67837947e-03
      8.01555626e-03 6.86896453e-03 9.26827826e-03 1.08769964e-02
      6.64754491e-03 6.09817170e-03 -1.73223279e-02 -1.14954822e-02
      9.96238925e-03 5.10579115e-03 9.00153723e-03 1.41283832e-02
      9.97914560e-03 5.13986358e-03 -1.68528166e-02 -2.18106341e-02
      -1.24490559e-02 -5.04086819e-03 -1.47608563e-03 -4.30530775e-03
      -3.17553338e-03 7.55653670e-03 1.24979205e-02 1.83449984e-02
      1.56979321e-03 -1.51504781e-02 3.28226946e-04 1.77630398e-04
      2.81217182e-03 6.65631890e-03 9.87781677e-03 7.29779573e-03
      3.91008565e-03 4.63753240e-03 2.24243221e-03 -1.45900249e-02
      -1.69500839e-02 -8.67585745e-03 -3.29477340e-03 9.52141080e-03
      1.01425257e-02 7.58096343e-03 -1.12881055e-02 -9.91966110e-03
      -1.07219731e-02 5.51440427e-03 7.42221670e-03 7.17776222e-03
      1.20368889e-02 1.20659024e-02 1.14021609e-02 -1.29399793e-02
      -7.49133108e-03 1.50075592e-02 -4.19174088e-03 6.31803239e-04
      7.38259731e-03 1.12747960e-02 1.31567391e-02 2.14864407e-02
      1.99969276e-03 -1.02503225e-02 3.00206570e-03 -9.82199796e-04
      -1.49471667e-02 2.20699934e-03 4.69121616e-03 1.88981481e-02
      2.46646106e-02 8.70808901e-04 -1.47663231e-03 -1.65741500e-02
      -7.91718485e-04 6.48576627e-03 2.13618320e-03 8.36792588e-03
      1.88606624e-02 2.17437502e-02 -1.34479953e-02 -1.33397207e-02
      -8.35582986e-03 1.01871963e-03 -5.85720525e-04 -1.05921142e-02
      -7.84892496e-03 2.39344854e-02 2.35933680e-02 -8.80928803e-03
      -8.37344769e-03 -1.80487670e-02 2.11380590e-02 -5.29764453e-03
      3.86876962e-03 3.33859492e-03 1.06463935e-02 4.57593054e-03
      -6.99120015e-03 -2.50317231e-02 -8.23964924e-03 1.18349586e-03
      1.48328943e-02 -2.81979004e-03 1.98268592e-02 1.44137330e-02
      1.27309153e-03 6.20474666e-03 -1.68163776e-02 -2.75316439e-03
      2.13116109e-02 1.21027278e-02 6.89577358e-03 8.22660699e-03
      9.20526870e-03 7.83622265e-03 -7.61442911e-03 -4.61254595e-03
      -1.23967780e-04 -6.08956907e-03 -6.68869866e-03 -9.69416462e-03
      8.96805711e-03 -3.17380927e-03 -1.17940253e-04 -3.18411330e-04
      -1.33635215e-02 7.00006436e-04 3.99619015e-03 3.45995883e-03
      -7.05589307e-03 1.80518292e-02 9.67020541e-03 1.44205114e-04
      6.20174734e-03 3.12343403e-03 3.52783315e-03 -4.32967860e-03
      -9.78430919e-03 -1.33312745e-02 4.92385495e-03 1.65446568e-03
      -1.50474114e-03 8.27865675e-03 -6.01875270e-03 -5.57613093e-03
      -3.79695301e-03 -1.09714931e-02 -8.63370206e-03 5.44929737e-03
      -4.13313555e-03 8.87127407e-03 5.90293854e-03 -5.02267107e-03
      -3.82978469e-03 -1.06888218e-02 -8.23030900e-03 7.64675846e-04
      1.07068755e-02 5.02812397e-03 6.73655327e-03 6.75836252e-03
      5.55661554e-03 -2.11981870e-02 3.93206486e-03 -5.86654944e-03
      -1.03232851e-02 3.47831403e-03 -2.00568233e-03 -4.10449924e-03
      -6.26312522e-03 8.09917878e-03 -5.40583627e-03 8.20629112e-03
      1.23103289e-02 -3.82519118e-03 2.30421429e-04 7.75932614e-03
      -7.13699730e-03 -3.17331025e-04 -1.47500141e-02 -7.81280641e-03
      1.15721058e-02 5.95810264e-03 7.13247946e-03 6.87712803e-03
      -4.09451872e-03 -5.84823871e-03 -1.74037553e-02 -8.00739788e-03
      -6.48595253e-03 1.66161952e-03 -3.20014404e-03 -2.74980627e-03
      1.04398339e-03 1.00321881e-03 3.99904931e-03 -7.42667401e-03
      9.83004272e-03 -3.58078256e-03 2.33624177e-03 1.44672059e-02
      8.09544697e-03 8.38715024e-03 -7.57292472e-03 -1.42961107e-02
      -6.07768819e-03 -1.42448526e-02 -4.93049389e-03 -1.99417025e-03
      1.69726703e-02 9.71948169e-03 1.44787980e-02 -3.88092757e-03
      -3.96715198e-03 -1.17407758e-02 -2.35628569e-03 -1.57778000e-03
      6.86642807e-03 1.00301346e-02 3.74685368e-03 -4.59726714e-03
      1.21128767e-04 -4.06555086e-03 6.55259378e-03 -9.24410485e-03
      4.82961163e-03 3.06115544e-04 1.00306179e-02 1.28605403e-02
      -9.57341585e-03 -1.64939705e-02 -8.65284819e-03 -9.09522641e-03
      -8.79654381e-03 4.38685250e-03 -5.06904209e-04 2.67891190e-03
      -5.70709584e-03 -5.55776572e-03 -2.84260651e-03 5.36442455e-03
      2.94763217e-04 -1.09710614e-03 5.67461597e-03 -1.63475086e-03
      2.74409843e-03 6.84153987e-04 -1.80823449e-02 7.84951670e-04
      1.59022771e-03 -8.53530038e-03 2.96372012e-03 1.31119061e-02
      7.51162006e-04 -2.87109939e-03 2.13201903e-03 -1.42311398e-02
      -3.42947780e-03 6.37242664e-03 -2.62608961e-03 6.30969089e-03
      1.30924461e-02 -1.41151913e-03 -2.55790353e-03 8.92486796e-03
      -9.02216416e-03 3.67014925e-03 1.34506673e-02 4.35893983e-03
      8.64124577e-03 1.45220682e-02 1.14479857e-02 5.70365740e-03
      -2.17405078e-03 -2.62506604e-02 -2.37247460e-02 -1.63564514e-02
      3.64558864e-03 1.66394971e-02 2.49047019e-02 1.47548364e-02
      2.05971440e-03 -1.10742757e-02 -9.36728145e-04 -2.82463524e-03
      4.21554781e-03 3.38276918e-03 1.20166037e-03 1.88594330e-02
      9.05479118e-03 -1.17724645e-03 -6.22096844e-03 -1.62136108e-02
      -4.59987810e-03 1.40175810e-02 2.65148599e-02 1.22027919e-02
      -4.38001752e-03 2.86576035e-03 9.16825258e-04 -1.31854380e-03
      2.89702963e-04 -1.90029033e-02 -9.39893164e-03 2.07416452e-02
      1.92398634e-02 2.35322192e-02 3.83975147e-03 3.61033389e-03
      -2.09370758e-02 -2.56480835e-03 -2.73806741e-03 8.32230411e-03
      6.55494910e-03 1.92622282e-02 9.45153739e-03 -1.98423844e-02
      -4.33410238e-03 -3.72541090e-03 8.56659468e-03 2.83264043e-03
      6.84521906e-03 1.30342636e-02 -1.22261578e-02 -8.63914657e-03
      -1.25449579e-02 -1.01674756e-03 -1.28632493e-03 7.22409552e-03
      3.08621489e-03 -7.38907547e-04 1.42307980e-02 -1.50643736e-02
      -2.55921558e-02 -2.22853776e-02 -1.96305849e-03 2.72711180e-03
      1.61541533e-02 1.90604422e-02 2.41188630e-02 -2.19362462e-03
      -2.06634169e-03 4.01477003e-03 -1.79849286e-02 -1.47413444e-02
      -4.30711033e-03 1.00663878e-04 -2.61056027e-03 5.30340197e-03
      7.81809539e-03 -7.42999977e-03 2.56437622e-03 1.52991051e-02
      1.85232796e-02 6.26899488e-03 -1.08828023e-02 -6.32232148e-03
      3.84975690e-03 -6.39208080e-03 -1.39080575e-02 -1.33449081e-02
      -1.69197917e-02 -1.00279534e-02 7.79958256e-03 3.09910253e-03
      7.51358317e-03 2.34215222e-02 -2.54294164e-02 -7.12432619e-03
      1.27457371e-02 9.25840717e-03 1.28387092e-02 2.26324834e-02
      -1.27645750e-02 -5.13860164e-03 5.24939271e-03 -2.77245473e-02
      -7.31586479e-03 -4.23354749e-03 8.26266885e-04 4.36624233e-03
      4.20638733e-03 -2.28980556e-03 -2.22596200e-03 4.44935448e-03
      7.19325943e-03 -1.73467360e-02 -2.52862349e-02 -2.38767806e-02
      -1.03538269e-02 3.35985259e-03 1.05739543e-02 2.01787297e-02
      2.84020733e-02 3.20492964e-03 8.38146266e-03 2.43350677e-02
      -5.66753512e-03 -6.81339763e-03 7.08448235e-03 -3.78195453e-03
      -1.03720361e-02 -8.90507828e-03 -9.91927553e-03 5.69434185e-03
      -1.08812349e-02 -3.81961204e-02 -3.46105061e-02 2.87906406e-03
      2.54064612e-02 1.24372570e-02 1.54349934e-02 -3.91580258e-03
      -6.93632895e-03 -2.60068234e-02 -1.40407011e-02 5.87905350e-04
      5.60984528e-03 1.80839915e-02 2.79591605e-02 3.26888561e-02
      5.29774278e-03 -1.29605643e-02 -1.80534963e-02 -1.06412126e-02
      2.11865455e-03 6.37281686e-03 2.03194562e-02 2.01372169e-02
      9.67959315e-03 -1.77924111e-02 -1.38585325e-02 -1.80623047e-02
      -3.11375521e-02 -3.60246934e-02 2.92803235e-02 3.91046815e-02
      2.31949124e-03 1.77308843e-02 -1.68584269e-02 4.85349214e-03
      -1.62789561e-02 -1.19025744e-02 9.29522235e-03 1.19895516e-02
      9.73663479e-03 -1.81680229e-02 -2.79712342e-02 -3.24856900e-02
      -2.45954543e-02 -2.27466263e-02 -1.60823558e-02 1.20537663e-02
      5.78489807e-03 1.24319382e-02 1.53604262e-02 -2.85960292e-03
      -1.86111126e-02 -1.46065820e-02 -1.69617068e-02 -1.86231136e-02
      7.63030816e-03 6.76645059e-03 -3.76918609e-03 3.16425599e-02
      2.89285779e-02 -1.95381306e-02 2.48164535e-02 -1.30429836e-02
      -1.31964181e-02 1.34193134e-02 -3.06833186e-03 -2.86062043e-02
      -2.48886328e-02 -2.16093399e-02 -1.23002380e-02 2.19240952e-02
      -3.04362574e-03 -1.78934298e-02 4.57750866e-03 9.42650158e-03
      -5.45427483e-03 1.28573794e-02 8.70433822e-03 2.13532872e-03
      -1.52410930e-02 -1.02916313e-02 -9.94727761e-03 -1.41001521e-02
      -8.97700526e-03 -1.31809451e-02 9.96257737e-03 2.87826508e-02
      -1.41967749e-02 -3.46783847e-02 -7.46914558e-03 -2.45441590e-03
      1.61786366e-03 1.21144075e-02 -1.55816984e-03 -5.62447915e-03
      -8.38061236e-03 -1.91086177e-02 -3.16600502e-03 -4.96565923e-03
      -5.30934241e-03 -3.66017967e-03 -2.48091016e-03 -7.85781164e-03
      6.04410830e-04 2.55039781e-02 8.24658375e-04 -1.57076158e-02
      -9.58095957e-03 5.67791797e-03 6.57643331e-03 1.08145233e-02
      -2.44386820e-03 -1.48502830e-02 9.55859106e-03 1.85055705e-03
      -7.66674057e-03 -2.87107285e-03 5.30263362e-03 9.81565565e-03
      2.16756668e-02 6.35706354e-03 -1.16094025e-02 4.31806315e-04
      -9.85056069e-03 -7.27631501e-04 -7.10385793e-04 6.01975007e-05
      7.96471257e-03 1.91985462e-02 -1.47652924e-02 -1.97363496e-02
      -2.73582730e-02 -3.18884710e-03 -4.05464647e-03 -6.80543808e-03
      -6.90321263e-04 9.12625063e-03 1.56383459e-02 1.07878149e-02
      -1.75799138e-03 1.43506294e-02 6.60724007e-03 9.23393574e-03
      3.07880109e-03 -1.50003452e-02 -1.39249191e-02 -5.60070504e-04
      8.34660721e-04 -1.74634270e-02 -1.85792465e-02 1.12597737e-02
      2.70889350e-03 -4.38859733e-03 -1.93625912e-02 -1.50714135e-02
      -1.81086212e-02 -1.31233810e-02 -1.64124835e-02 -1.70604307e-02
      -1.07400119e-02 -2.17842348e-02 -5.88204339e-03 1.40278810e-03
      1.29839091e-03 -2.42115790e-03 4.13562218e-03 -1.53376255e-03
      5.03773219e-04 -5.40376408e-03 1.56257283e-02 7.93924788e-04
      -1.30503252e-02 -2.42358223e-02 -1.07332431e-02 -3.78857204e-03
      -9.79454536e-03 6.61228457e-03 1.43781155e-02 1.37042906e-02
      -3.68082616e-03 -4.66664787e-03 -1.25757745e-02 -7.72001501e-03
      6.96358643e-03 -3.50056402e-03 3.35146450e-02 4.27861586e-02
      -2.33210456e-02 -2.87091080e-02 -1.27913896e-03 -2.81692599e-04
      -1.06536699e-02 5.56639722e-03 2.29682270e-02 2.47397497e-02
      -2.54742778e-03 -3.92466076e-02 -2.93121766e-02 -1.97786558e-02
      -5.26506500e-03 -1.46209784e-02 5.13823796e-03 1.82797089e-02
      2.63254922e-02 -2.12190412e-02 -1.19288005e-02 -1.23199048e-02
      -5.49160922e-03 -1.00312773e-02 -2.06654165e-02 -1.56886104e-04
      1.53376274e-02 6.22641556e-02 4.56002690e-02 2.48935586e-03
      5.13743982e-03 -8.25260859e-03 -8.64613242e-03 -3.21921483e-02
      -2.80101057e-02 5.99705568e-03 4.85075489e-02 4.10097726e-02
      -7.34554045e-03 -1.55295688e-03 -1.09743550e-02 7.71028746e-04
      2.06122850e-03 3.60587463e-02 3.33717186e-03 1.55671733e-02
      -3.78872408e-03 1.01108877e-02 6.47959579e-03 -2.77049094e-02
      -3.75303030e-02 -5.57947380e-04 -1.57649443e-02 1.36147207e-03
      1.51899196e-02 7.06474064e-03 4.91311075e-03 1.10977320e-02
      4.74535720e-03 -2.77304999e-03 -8.79934430e-03 -5.46436990e-03
      -1.14333471e-02 1.46211190e-02 8.52700695e-03 1.32702221e-03
      4.06180974e-03 -4.07638820e-03 -2.22401470e-02 -1.39720785e-02
      -4.75723902e-03 -2.15147925e-03 2.95266323e-02 2.98506906e-03
      -3.28908674e-03 -1.76335359e-03 -1.18095409e-02 -1.52648799e-02
      -4.12155921e-03 -2.10880358e-02 -1.50412461e-03 2.32242066e-02
      6.69046165e-03 -1.53632648e-03 -6.57586986e-03 -8.18433333e-03
      -6.48323819e-03 -1.72633678e-03 -9.35207773e-03 5.43600321e-03
      2.21322943e-02 7.20555196e-03 -2.18581827e-03 8.48718686e-04
      -1.95428845e-03 -4.08283062e-03 -3.85608035e-03 -2.80016046e-02
      -6.65780297e-03 2.33242624e-02 5.48887532e-03 2.84612481e-03
      1.76850543e-03 -3.19471699e-03 -1.68388186e-03 -4.84033767e-03
      -1.65049620e-02 -1.02735765e-03 1.06386133e-02 1.56227956e-02
      -2.10393639e-03 2.18588370e-03 -2.14508292e-03 2.50900467e-03
      1.80405623e-03 5.32389572e-03 3.24779400e-03 -2.21691141e-03
      -7.36883283e-03 4.43209196e-03 -5.16635075e-04 -5.81094995e-03
      -2.66952021e-03 -1.29152299e-03 4.63082874e-03 4.74947132e-03
      4.21585399e-04 5.74654667e-03 -2.96873203e-03 -3.64411087e-03
      -3.24274600e-03 -2.77530309e-03 -1.07603967e-02 -1.35751395e-02
      -4.52888105e-03 3.17727099e-03 4.82628215e-03 2.35027559e-02
      6.31024363e-03 1.02151756e-03 2.35469639e-03 -3.19495634e-03
      -3.77152744e-03 1.09275384e-02 2.22979928e-03 4.84631304e-03
      8.89044534e-03 1.31877150e-05 -1.62236521e-03 1.08402064e-02
      4.22862079e-03 3.12003260e-03 -7.43392250e-03 -7.13299308e-03
      3.60160065e-03 -3.63218918e-04 2.20025795e-05 -7.64483958e-03
      2.33216770e-02 1.21673066e-02 5.35714580e-03 -3.09150992e-03
      -1.21260006e-02 -1.43297007e-02 8.08968674e-03 1.47065874e-02
      5.53542341e-04 1.51555445e-02 5.03678666e-03 1.42152095e-03
      -8.70299619e-03 -1.87940765e-02 -1.81570870e-03 4.34842613e-03
      6.37459289e-03 1.91186776e-03 1.44157531e-02 3.15988297e-03
      -1.20557868e-03 -3.16891889e-03 -5.69794560e-03 -2.91530089e-03
      1.56847294e-02 1.34493001e-02 -3.87504208e-03 9.81879188e-04
      8.54691025e-03 -1.61250699e-02 -9.58449766e-03 -9.46874544e-03
      -2.89713708e-03 8.77618324e-03 1.05543081e-02 2.69567594e-03
      6.13230746e-03 1.09568760e-02 -1.63413156e-02 5.09232224e-04
      -3.69642337e-04 -2.68971873e-03 1.19946999e-02 3.39321769e-03
      4.33367584e-03 -3.41544696e-03 -4.14850516e-03 -1.58063807e-02
      -5.64495102e-03 4.05720202e-03 7.94675574e-03 1.31478971e-02
      2.49158149e-03 -7.49327382e-03 1.82660222e-02 -7.06293434e-03
      -2.01903470e-02 -8.60804040e-03 6.11379091e-03 3.68260732e-03
      -1.06637017e-03 3.47584300e-03 1.15461098e-02 1.22406967e-02
      -1.36481309e-02 -1.56881381e-02 5.71635785e-03 6.28772797e-03
      1.24136666e-02 1.38481809e-02 1.38020015e-03 3.66913574e-03
      2.64812261e-03 -1.49663305e-02 -3.26378824e-04 -1.49658453e-02
      -7.40833161e-03 1.45464977e-02 1.15112960e-02 6.51574368e-03
      -8.86877440e-03 1.87618639e-02 -1.35844201e-02 -1.28614018e-02
      -2.90518277e-03 6.69216085e-03 1.23122511e-02 1.15173506e-02
      -2.89917178e-03 -6.49640756e-03 3.59256426e-03 -8.98358691e-03
      4.26321203e-04 -4.74804593e-03 2.82134791e-03 1.32396966e-02
      -6.72845112e-04 -2.07882542e-02 -3.69253126e-03 -1.24234566e-03
      -6.40947977e-03 3.61402915e-03 8.05125688e-04 -1.15452439e-03
      1.58328097e-02 -9.62175522e-03 -3.04696206e-02 1.92963980e-05
      1.63662843e-02 8.68486799e-03 1.09215956e-02 1.52656026e-02
      1.78442243e-02 -2.19345279e-03 7.12297671e-03 -5.46995457e-03
      -1.32408561e-02 4.76050843e-03 7.36263162e-03 5.13217237e-05
      -2.60874350e-03 2.33330508e-03 1.24887740e-02 -1.19200312e-02
      -1.31324939e-02 -8.99189990e-03 -3.15175904e-03 -1.41678029e-03
      4.18135989e-03 1.62747931e-02 2.49759667e-02 -1.10905739e-02
      -8.06389563e-03 -4.70537320e-03 -2.97753420e-03 7.56283989e-05
      3.77531885e-03 5.90833463e-03 1.89596899e-02 1.70293190e-02
      -1.06939357e-02 1.36982435e-02 1.59061495e-02 -6.97328756e-03
      -1.91905990e-03 5.64205367e-03 1.57419802e-03 9.53688193e-03
      -5.33449044e-03 -2.10691206e-02 1.13177830e-02 -5.54463500e-03
      -3.24825785e-04 -3.58763780e-03 -3.73772606e-02 3.41283786e-03
      4.35929466e-03 6.25259057e-03 1.26788102e-04 1.88946854e-02
      8.19054432e-03 -1.13770468e-02 -1.89068373e-02 -3.74549218e-02
      -1.31488154e-02 -1.09322425e-02 -1.41811268e-02 -1.32552413e-02
      1.84735321e-02 1.28738526e-02 -2.37308592e-02 1.21397711e-02
      2.21874043e-02 4.17614449e-03 -7.21058750e-04 -1.05790561e-02
      -1.30972927e-02 1.58559624e-02 -4.36506514e-03 -4.23502363e-02
      -2.24501267e-02 2.82928292e-02 4.76055779e-02 1.69183612e-02
      4.14545415e-03 -1.01986211e-02 2.51621306e-02 3.22220917e-03
      -2.57610176e-02 -1.26777152e-02 9.51108013e-05 -1.90986488e-02
      -1.51281431e-02 -1.18709533e-02 -4.29216167e-03 2.59743501e-02
      -1.36062559e-02 -3.42463627e-02 -3.35986204e-02 -2.89870403e-03
      8.94163549e-03 8.95875506e-03 6.06103102e-03 -2.73376424e-03
      8.85769725e-03 -5.53537440e-03 -4.11680527e-02 -3.76861617e-02
      2.52304673e-02 3.94861028e-02 7.40195159e-03 -6.58193463e-03
      -1.63673572e-02 2.22623851e-02 4.00778512e-03 -1.09363887e-02
      -1.60715692e-02 5.22312755e-03 -3.04951030e-03 -2.86131836e-02
      -2.92256568e-02 -8.70127510e-03 1.79285500e-02 5.14041400e-03
      -2.57753991e-02 -2.18253061e-02 -7.09604006e-03 2.04552393e-02
      1.61831938e-02 9.63942148e-03 1.18675153e-03 1.40589057e-02
      1.09348949e-02 -4.58674738e-03 -1.89937465e-02 -1.17087737e-02
      -3.16358381e-03 -1.02085015e-02 5.57493977e-03 2.53538713e-02
      2.42404211e-02 7.05234101e-03 3.67558957e-03 4.89996653e-03
      -1.43571598e-02 -2.24925596e-02 -2.95387544e-02 -1.82371885e-02
      1.38010532e-02 -3.93287838e-03 -3.24366323e-04 3.57484608e-03
      1.17561314e-02 1.12010324e-02 6.91421516e-03 1.69608891e-02
      -2.06534145e-03 -5.22550661e-03 2.26649661e-02 6.19445043e-03
      5.74259227e-03 -5.16962260e-03 -2.64660176e-02 -2.96348017e-02
      -2.84592565e-02 1.68356188e-02 9.28245112e-03 -3.24031152e-02
      -2.99070054e-03 8.05617403e-03 1.06878504e-02 -2.78310757e-03
      2.44340370e-03 1.41187534e-02 4.94355662e-03 -3.23729846e-03
      1.48806290e-03 1.60985049e-02 5.91013022e-03 6.84031844e-03
      3.93252075e-03 8.23994167e-04 1.23038413e-02 -1.37044508e-02
      -1.66827273e-02 8.39562248e-03 8.68129451e-03 8.93197209e-03
      3.26533727e-02 1.06636714e-02 -2.58629350e-03 -1.33522286e-03
      -1.45349896e-03 1.36439200e-03 6.48886897e-03 1.77958794e-02
      4.62525804e-03 3.45170638e-03 -1.02298437e-02 -6.14321325e-04
      -2.09316537e-02 -1.92841347e-02 -1.30237592e-02 2.21829396e-02
      1.72878373e-02 9.20852367e-03 4.28059883e-02 9.59174987e-03
      -3.39168347e-02 -5.01447618e-02 -3.70047912e-02 2.97331996e-03
      1.22989959e-03 -1.08294673e-02 -1.27705736e-02 1.11916019e-02
      1.38600534e-02 3.19359358e-03 7.91541301e-03 6.11141650e-03
      4.22645174e-03 8.58061202e-03 -9.16102028e-04 -2.90822685e-02
      -1.76602397e-02 -2.47364156e-02 1.85471470e-03 4.29181382e-03
      -3.59276822e-03 1.32739460e-02 -8.10766872e-03 -1.99719910e-02
      -2.37979144e-02 1.70087200e-02 2.46174019e-02 -1.80131127e-03
      -7.24051613e-03 -6.01281505e-03 2.20344285e-03 5.94809372e-03
      -7.32543832e-03 -2.05108523e-02 -3.19157764e-02 -2.37573702e-02
      1.20598339e-02 1.34530682e-02 1.59480292e-02 1.24833062e-02
      2.22560251e-03 3.24251188e-04 -1.63898729e-02 -1.96851287e-02
      1.87331927e-03 5.49510308e-03 -1.73866202e-03 5.13368938e-03
      2.52100895e-03 -3.35949264e-03 -6.61820406e-04 -9.99416783e-03
      -1.22133195e-02 -3.37154255e-03 -1.47290213e-03 -1.50248641e-04
      1.80488192e-02 3.00268158e-02 -4.19839798e-03 3.06381145e-03
      -1.09460382e-02 -8.59376788e-03 -1.90724584e-03 -2.22928729e-02
      -2.01593228e-02 9.63555463e-03 5.39651327e-03 7.33095082e-03
      -3.19019333e-03 1.03737414e-03 9.97613301e-04 -5.97184058e-03
      -2.63625719e-02 -1.09069394e-02 -7.28821673e-04 8.88571050e-03
      -1.92416962e-02 -7.64418067e-03 -4.76962933e-03 -8.13212246e-03
      -1.37700876e-02 -5.88118378e-03 -5.52699901e-03 2.13465523e-02
      7.67084723e-03 6.38114568e-03 1.17435912e-03 -1.05703296e-02
      -1.10666910e-02 -2.11733654e-02 -1.53005198e-02 -4.11846023e-03
      1.47889275e-02 1.29554253e-02 4.15402325e-03 -3.24645953e-04
      3.13107739e-03 5.67373445e-06 -1.08869690e-02 -3.10604014e-02
      -3.28248478e-02 -1.33561017e-02 1.82649083e-02 1.62578225e-02
      1.27421354e-03 6.08072907e-04 -4.05815523e-03 -1.17897904e-02
      -2.22858787e-02 -2.85305995e-02 -1.03461258e-02 1.85315106e-02
      1.92371961e-02 2.72887386e-02 1.17582427e-02 4.88274591e-03
      -1.20870406e-02 -1.82247236e-02 -1.74738467e-02 5.46202809e-03
      1.27926981e-02 -9.88199958e-04 4.38100006e-03 1.71469916e-02
      4.00491618e-03 -3.64087941e-03 -7.89381657e-03 -4.54090908e-03
      2.26397756e-02 -1.16246743e-02 1.22386124e-02 -5.39570209e-03
      -2.31612078e-03 -2.74764746e-03 -7.17605837e-03 -7.73429172e-03
      -6.89276727e-03 1.00119989e-02 -3.52274976e-03 -5.20163029e-03
      -1.42822536e-02 -6.93516061e-03 2.03859736e-03 -2.18834057e-02
      -1.18569005e-02 -1.05374157e-02 8.94867163e-03 -1.28166331e-03
      -5.81761682e-03 -5.52122190e-04 4.10137512e-03 -3.76800075e-03
      -7.31780287e-03 -1.85502768e-02 -7.84841890e-04 2.02123430e-02
      -1.86735950e-03 6.17185328e-03 6.41677389e-03 -4.27015917e-03
      -2.36095805e-02 -2.02357676e-02 -1.87214352e-02 -1.12852575e-02
      1.03876656e-02 1.89582054e-02 4.82714502e-04 -2.40734150e-03
      -4.92963847e-03 5.91254933e-03 -1.83254685e-02 -4.11666464e-03
      -8.83219857e-03 5.25057688e-03 1.16721159e-02 1.65505558e-02
      3.93951219e-03 1.38835644e-03 -7.96895649e-04 3.17619741e-03
      5.76179707e-03 -1.86855858e-03 5.45402244e-03 8.65939725e-03
      5.41916629e-03 2.35296553e-03 -1.94670411e-03 -1.28254099e-02
      -5.66098979e-03 -5.25030214e-03 -1.53869186e-02 -1.87063415e-03
      1.30452765e-02 3.02767418e-02 2.19694413e-02 4.98203328e-03
      5.56781702e-03 -3.61162645e-04 2.50479579e-03 -2.78178416e-03
      -6.86895894e-03 7.37554720e-03 1.56506634e-04 1.10724261e-02
      3.41329118e-03 1.29154129e-02 5.39655471e-03 5.32517908e-03
      6.83545694e-03 -1.50740100e-02 -4.15131683e-03 4.65705385e-03
      2.09674444e-02 2.04691198e-02 9.91942734e-03 4.18932689e-03
      5.67109697e-03 -2.51191407e-02 -2.75166295e-02 1.18453754e-03
      6.23299601e-03 6.51324680e-03 7.60972220e-03 8.46075267e-03
      1.02886613e-02 6.03889255e-03 -6.54802471e-03 -1.35289598e-02
      -1.18737379e-02 -5.37350541e-03 -1.65546071e-02 2.35979003e-03
      3.19710327e-03 7.53888953e-03 1.06414966e-02 9.60071478e-03
      5.36397705e-03 2.33153650e-03 1.68366078e-02 8.36511794e-03
      1.03262085e-02 1.20579088e-02 -4.29691933e-03 6.33973908e-03
      -1.69021636e-02 -1.62022728e-02 -6.17050240e-03 -3.33260116e-03
      3.16552888e-03 -9.09183826e-03 6.16603624e-03 -4.03708080e-04
      7.26149976e-03 1.39178766e-03 3.58606013e-03 -3.47571261e-03
      2.48780614e-03 -1.64737031e-02 -6.84580673e-03 -7.12319510e-04
      -2.78054457e-03 8.27980344e-04 7.08046788e-03 1.20665133e-02
      2.42903195e-02 9.63691156e-03 -6.96036918e-03 -2.26587374e-02
      3.75981210e-03 -7.60646351e-03 -5.83964400e-03 1.00046571e-03
      1.37254335e-02 1.91285349e-02 9.34418943e-03 -8.35981034e-03
      -1.60897262e-02 1.71141687e-03 8.65152979e-04 1.86304923e-03
      3.62121570e-03 1.10042002e-03 5.56252198e-03 1.79582275e-03
      -2.68646292e-02 -1.64527874e-02 3.20761115e-03 5.95882593e-04
      -7.89800135e-04 -7.34712230e-04 -6.78808242e-03 3.64826969e-03
      3.89342662e-03 -1.58153027e-02 -3.70970145e-02 2.02960358e-03
      -5.79069648e-03 -4.39092563e-03 3.05188696e-05 1.13470983e-02
      1.81611758e-02 2.08017435e-02 -2.12987065e-02 -2.29619816e-02
      -2.12627812e-03 4.15649993e-05 8.77941435e-04 2.79493351e-03
      3.73503938e-03 1.69248302e-02 -2.03922926e-03 -2.43744068e-02
      -1.00529706e-02 5.31184627e-03 3.01339431e-03 1.28819596e-03
      4.22592554e-03 1.07691241e-02 -2.13102927e-03 2.46065250e-03
      -2.02549882e-02 -1.54704303e-02 2.43980065e-03 3.34394723e-03
      6.57918863e-03 1.57020502e-02 1.83756221e-02 6.72991574e-03
      1.47900870e-02 4.60999785e-03 -1.25385001e-02 7.65677541e-03
      7.18940981e-03 -5.62742027e-03 7.91859384e-06 2.16068304e-03
      1.55087709e-02 7.08830368e-04 -1.31691983e-02 3.82623542e-03
      1.67347714e-02 -3.78283998e-03 -1.23540750e-02 2.46295426e-03
      1.43066887e-02 6.58232579e-03 1.17139248e-02 -6.58369856e-03
      -1.71179827e-02 2.44122511e-03 7.04288157e-03 5.23023540e-04
      5.82359405e-03 7.42543070e-03 1.28315426e-02 7.36255618e-03
      -2.21352484e-02 -1.05109029e-02 -1.42482721e-04 1.22266831e-02
      -8.21278896e-03 -2.54252576e-03 1.47804962e-02 1.45616196e-02
      2.28734799e-02 -4.84504597e-03 3.62842833e-03 -3.80149740e-03
      -2.61369832e-02 -7.24353502e-03 -1.02297068e-02 2.28265836e-03
      1.97996572e-03 3.01391110e-02 1.52713386e-02 -4.74375300e-03
      -1.89098250e-02 -2.33606808e-02 -1.55107332e-02 -1.77806728e-02
      -1.35654164e-02 6.32777810e-03 1.61012337e-02 -1.40784318e-02
      -1.76311359e-02 -9.82460659e-03 -1.83390616e-03 -1.69048086e-03
      3.20468051e-03 2.31319852e-02 1.66132580e-02 3.41195650e-02
      -2.41225556e-04 -1.75649934e-02 -1.50971068e-02 3.45673109e-03
      -6.09356491e-03 -1.07491100e-02 2.07238272e-03 2.07679681e-02
      2.09474210e-02 5.72790159e-03 -2.65882406e-02 -9.55849513e-03
      -4.05198475e-03 -1.62191279e-02 -9.91751533e-03 -1.48366427e-03
      9.62880161e-03 1.82270054e-02 -1.35025545e-03 -2.42508501e-02
      -1.84335671e-02 -4.09822911e-03 -1.54142333e-02 1.93222181e-03
      1.59626044e-02 7.04750372e-03 2.61694528e-02 3.46074789e-03
      -1.24436533e-02 1.26341489e-04 9.03981179e-03 -1.99210178e-02
      -2.14468185e-02 -1.74816102e-02 1.74404923e-02 8.88450816e-03
      -1.37126306e-02 -1.69254318e-02 5.48598263e-03 6.97670225e-03
      -1.37099689e-02 -1.27946772e-03 1.93079817e-03 1.42183844e-02
      4.89256997e-03 -2.06229836e-03 -2.46558841e-02 -1.68880802e-02
      -2.68702507e-02 -3.33798421e-03 1.40381595e-02 2.64165737e-02
      -1.71548291e-03 5.05520636e-03 -1.09685049e-03 -1.16598615e-02
      -5.78242354e-03 -2.72109881e-02 -2.09156983e-02 -1.06741413e-02
      2.98905261e-02 1.50295896e-02 -2.50246190e-03 -1.72245055e-02
      -2.30872016e-02 -3.47321597e-03 -7.06326682e-03 1.08984569e-02
      2.37596240e-02 2.15680301e-02 1.10362435e-03 1.41536992e-03
      1.56274403e-03 -6.34817593e-03 -8.49422882e-04 -1.85051486e-02
      -1.42460130e-02 -4.14112350e-03 7.15059275e-03 -3.44692031e-03
      3.51610966e-03 4.71425615e-03 1.17634898e-02 -9.33020841e-03
      -1.47321923e-02 -2.48347614e-02 -1.78750586e-02 2.33122408e-02
      3.30511183e-02 -6.44881604e-03 -2.42683757e-03 5.86750964e-03
      -6.62735058e-03 -1.51677653e-02 -1.68448016e-02 -6.88726548e-03
      8.18439107e-03 5.04278205e-03 7.17698690e-03 4.35823575e-03
      9.58310347e-03 1.43778883e-02 -1.24171795e-03 -1.03148557e-02
      7.58122141e-03 1.28206117e-02 1.08188428e-02 1.47201508e-05
      -2.95663532e-02 -3.01669128e-02 -8.79414193e-03 -5.47828618e-03
      -1.16932765e-02 6.04842370e-03 8.63031950e-03 1.74724478e-02
      2.62068212e-02 2.43373998e-02 2.69552227e-03 -5.87405683e-03
      -2.20979936e-02 -2.23528966e-02 -2.57497318e-02 -1.42763657e-02
      2.81750858e-02 3.59106138e-02 4.19225022e-02 1.30918780e-02
      1.18031325e-02 -1.96620375e-02 -5.41936606e-02 -4.56253402e-02
      -2.38178670e-02 3.69089954e-02 2.56309938e-02 -4.59401170e-03
      -2.48406418e-02 -1.55542074e-02 -3.13641392e-02 -3.81658971e-02
      -2.78160465e-03 1.35033736e-02 4.38157320e-02 2.73526758e-02
      1.94536988e-02 1.34751014e-03 7.89651740e-03 -2.80935913e-02
      -4.98923585e-02 -2.23578811e-02 -3.99707758e-04 3.32921036e-02
      7.91587308e-03 6.01016264e-03 -1.73045893e-03 1.64199397e-02
      1.23533905e-02 -1.39165707e-02 -1.51765514e-02 -1.76764862e-03
      8.92890338e-03 2.17007101e-03 -1.57409683e-02 -2.20401138e-02
      -2.29675192e-02 -8.09462555e-03 3.19934785e-02 1.59365293e-02
      2.08088420e-02 1.42093217e-02 7.06702704e-03 -2.04466172e-02
      -1.47471959e-02 4.23751539e-03 -2.76498916e-03 -1.29424082e-02
      -5.06922044e-03 5.23397978e-03 7.12979818e-03 -5.09719132e-03
      -3.08979824e-02 -2.45996118e-02 -1.92753859e-02 -3.82650323e-04
      2.95407940e-02 2.54868362e-02 1.33759594e-02 5.23607479e-03
      2.21493747e-03 7.60903256e-03 2.02887994e-03 4.92998725e-03
      -1.88008428e-03 -2.85074990e-02 -2.41817478e-02 3.29914279e-02
      5.18070208e-03 1.49818053e-02 6.45561656e-03 6.06859894e-03
      4.31374693e-03 -2.63095775e-04 -2.22957544e-02 -1.27884755e-02
      -4.10917588e-03 1.04935747e-02 3.26787238e-03 4.34978458e-04
      5.64353820e-03 6.59342390e-03 4.65681450e-03 -1.88497100e-02
      -1.32848062e-02 8.87462217e-03 1.28634050e-02 1.98966321e-02
      1.03381565e-02 7.68851163e-03 1.11550018e-02 1.24991639e-02
      -7.57019361e-03 -1.79158431e-02 -2.20774468e-02 1.22301783e-02
      2.04872638e-02 5.62629569e-03 5.43275662e-03 2.78379419e-03
      -2.06846092e-03 -2.09682584e-02 -2.57796850e-02 -1.85163878e-02
      1.18319802e-02 9.01820511e-03 -4.94801323e-04 9.50940978e-03
      4.82838042e-03 -2.95874733e-03 -2.43083369e-02 -1.53826633e-02
      -4.16332623e-03 7.15487963e-03 1.09233812e-03 -3.51414899e-04
      4.81608463e-03 1.49597065e-03 -7.44756195e-04 -7.84638524e-03
      -1.74518079e-02 -1.33063933e-02 3.21543077e-03 8.69835354e-03
      -1.05050113e-02 1.01396991e-02 5.78956958e-03 1.59726490e-03
      -1.05266487e-02 1.75517530e-03 -1.50219409e-03 6.45834068e-03
      -5.82080521e-03 -1.72411688e-02 -9.55700933e-04 9.56373231e-04
      5.24543284e-04 -3.07090278e-03 2.26013944e-03 8.18765629e-03
      3.43543448e-04 -1.00392972e-04 -1.22330748e-02 -1.79455839e-02
      -1.00717144e-02 -8.15640297e-03 9.19115823e-03 1.55421812e-02
      7.71650113e-03 8.84028338e-03 1.35622956e-02 -8.91428441e-03
      2.36219587e-03 5.68512082e-03 1.12276003e-02 6.21670857e-03
      4.68817540e-03 -7.89195951e-03 -6.35338388e-03 -5.80342673e-03
      -2.84036831e-03 -2.94425664e-03 -9.13539529e-03 -1.35366544e-02
      4.60788561e-03 4.21728007e-03 -7.48677785e-03 -4.59581474e-03
      4.56607342e-03 1.72150752e-03 -9.54450388e-03 2.38114316e-03
      -4.93505085e-03 6.68590982e-03 1.35164883e-03 -2.56102532e-03
      5.19818999e-03 4.55786427e-03 -1.30191923e-03 2.01265719e-02
      1.26196407e-02 1.49760144e-02 -1.13394875e-02 -2.06642970e-02
      -2.45744511e-02 -4.65019513e-03 -1.40550372e-03 3.42468452e-03
      -5.16961142e-03 1.34346047e-02 6.16133073e-03 -3.63357947e-03
      2.28977716e-03 -1.23975100e-02 -1.52727114e-02 -1.43913459e-02
      -1.70904794e-04 -9.11772810e-03 8.69564153e-03 2.03280542e-02
      -2.35588010e-03 -3.40186362e-03 -1.40511375e-02 -1.64616052e-02
      -7.86679611e-03 1.17718438e-02 2.23267190e-02 1.20137483e-02
      2.46941741e-03 -6.40248507e-03 -1.34874871e-02 -1.50380274e-02
      -1.37344906e-02 -5.21351071e-03 3.40543613e-02 2.70300079e-03
      1.80608791e-03 4.41165967e-03 1.09222950e-03 -1.93594322e-02
      -6.98640337e-03 -2.20273645e-03 -7.88055267e-03 4.97021619e-03
      -2.61948118e-03 -1.06830220e-03 1.28591815e-02 1.41794458e-02
      4.88814199e-03 -9.55787720e-04 -6.34753564e-03 1.61970954e-03
      1.47040496e-02 -1.85532589e-02 -1.49579896e-02 -5.79559011e-03
      2.55287085e-02 1.41685829e-02 4.09891317e-03 -1.05150335e-03
      2.12248657e-02 5.22096036e-03 -9.40750726e-03 -1.24827283e-03
      -2.90330150e-03 1.89636890e-02 -9.65524931e-03 -7.75900902e-03
      -5.19608241e-03 4.78878431e-03 -1.94689427e-02 -1.00934478e-02
      -1.70802325e-03 -4.68671322e-03 1.18071763e-02 -8.75692465e-04
      -4.32692701e-03 1.59968599e-03 7.82176945e-03 5.61755337e-03
      -3.11251283e-02 -1.56378187e-02 1.49453497e-02 2.86244061e-02
      1.58667471e-02 -8.73144157e-03 -9.80361924e-03 1.79828634e-03
      -1.96457375e-03 -9.88792256e-03 -8.73953383e-03 2.94161704e-03
      1.24715557e-02 1.35229761e-02 -7.18923926e-04 -6.65039476e-03
      8.44915863e-03 3.53505579e-03 -4.23705438e-04 3.95397749e-03
      5.99267008e-03 1.34786218e-02 -5.10486891e-04 -2.00485624e-03
      -9.63231828e-03 -1.19119859e-03 7.42744049e-03 1.16373075e-03
      5.20404289e-03 4.41576447e-03 2.48280098e-03 -2.31457762e-02
      1.60868606e-03 -8.01384263e-03 -1.51455530e-03 7.24552711e-03
      4.61332314e-03 6.36726012e-03 5.02898474e-04 1.19247092e-02
      9.45852604e-03 2.55719088e-02 -6.79666502e-03 -1.26526207e-02
      1.26915250e-03 4.68687853e-03 8.61322880e-03 -7.65601406e-03
      -1.66178867e-02 -3.84385744e-03 9.81099717e-03 -3.63254757e-03
      -1.07610328e-02 -1.28341524e-03 -2.23780144e-03 6.40055118e-03
      -2.90444557e-04 8.17306398e-04 -4.54836572e-03 8.56052525e-03
      -5.71333396e-04 -3.75769706e-03 1.28568616e-03 -7.71077769e-03
      5.99275623e-03 6.03477750e-03 1.74063109e-02 2.20336150e-02
      6.64368598e-03 8.36686790e-03 -3.12259677e-03 -1.87620684e-03
      -3.21449921e-03 1.62485987e-02 -8.08553863e-03 -2.54574418e-03
      3.60544957e-03 -1.82316217e-04 -5.48455922e-04 1.55451693e-04
      -2.49621551e-03 -5.58269117e-03 1.29580256e-02 -1.28397206e-02
      -6.01735525e-03 -8.22057482e-03 -1.28096389e-02 -2.02587713e-02
      5.61726280e-04 2.01135408e-03 -4.97473869e-03 4.20897501e-03
      1.06646251e-02 1.44987218e-02 7.89542275e-04 -9.56457015e-03
      -6.93311030e-03 6.87199598e-03 -5.85603819e-04 -6.04969449e-03
      -3.08284885e-03 1.16899600e-02 2.81823101e-04 -1.10384328e-02
      -4.90659988e-03 -2.02328176e-03 3.85369058e-04 -3.10683419e-04
      -5.20776899e-04 5.96665731e-03 6.31655427e-03 -4.68070572e-03
      -2.93928827e-03 -2.71790829e-02 -2.18469240e-02 -5.99113386e-03
      -4.67327703e-03 -3.91348638e-03 2.39362451e-03 3.39221978e-03
      1.01898126e-02 1.33940112e-02 -4.06423630e-03 -9.31374356e-03
      8.74878839e-03 -1.37128960e-02 -2.28523482e-02 -1.24293985e-02
      -4.93160915e-03 -7.46305240e-03 5.04730549e-03 1.09624369e-02
      5.42780478e-03 9.25874803e-03 -1.59085318e-02 -2.13965587e-02
      -7.49746244e-03 -8.63010646e-04 -5.19988453e-03 -3.58620286e-03
      1.43100014e-02 1.32827917e-02 -1.75768435e-02 -1.00442125e-02
      -6.33610459e-03 -5.32394415e-03 -3.68212536e-03 5.40741836e-04
      2.09950618e-02 2.38616532e-03 -5.91369625e-03 -1.71688590e-02
      -5.22256782e-03 -5.65822795e-03 -7.36023532e-03 -3.17663234e-03
      -5.36044082e-03 7.62851769e-03 1.11329351e-02 -1.25214169e-02
      1.37494532e-02 -7.17173237e-03 -7.27336481e-03 6.77698432e-03
      4.27746726e-03 -1.87113639e-02 -2.58163866e-02 -1.40879285e-02
      1.58980824e-02 -1.30140665e-03 -1.61408614e-02 -9.19061247e-03
      5.37417782e-03 2.25373209e-02 -8.90058745e-03 -4.00366844e-05
      -3.48072004e-04 4.14409442e-03 -3.70876491e-03 -4.23719315e-03
      -7.04600679e-05 -1.04550002e-02 3.98683781e-03 -2.74087954e-03
      -2.08935095e-03 6.66455599e-03 -1.21906856e-02 -1.39023399e-03
      8.32167175e-03 -1.54088868e-03 1.69201521e-04 3.33727039e-02
      -6.51401794e-03 -2.21143961e-02 4.61522536e-03 6.30730437e-03
      -5.26665337e-03 -1.81602538e-02 -1.50904190e-02 2.75331270e-03
      6.37271814e-03 9.00488254e-03 4.22482612e-03 3.89922364e-03
      -4.99717239e-03 1.34302946e-02 -2.47847172e-03 -9.66446847e-03
      1.56043591e-02 -1.14790201e-02 -7.89671857e-03 -5.81274217e-04
      7.86501821e-03 3.05392919e-03 -2.41841213e-03 1.97165795e-02
      -3.84464860e-03 4.63862903e-03 2.10554246e-02 -3.76082928e-04
      -3.28561515e-02 -7.76505610e-03 2.86324346e-03 -9.53392312e-03
      -9.28641297e-03 -1.85290258e-02 2.34551039e-02 1.33511459e-03
      -1.19807227e-02 -1.87535658e-02 -9.76895820e-03 -8.53169523e-03
      1.06250616e-02 -9.46467184e-03 -1.09803611e-02 2.32366584e-02
      4.09891782e-03 -3.60438041e-03 1.27208410e-02 1.38605153e-02
      7.06049753e-03 -4.10104264e-03 -2.96280589e-02 -2.67178100e-02
      1.19666299e-02 -1.05718915e-04 9.18392651e-03 8.60349834e-03
      8.47655907e-03 1.43144950e-02 2.60349410e-03 -2.28629746e-02
      -2.79163998e-02 1.66874044e-02 2.78711296e-03 -1.04195043e-03
      4.23788745e-03 4.17711890e-05 2.61917827e-03 6.68653427e-03
      -1.56793147e-02 -3.03208344e-02 -4.05966677e-03 8.53157416e-03
      4.74950066e-03 1.13836750e-02 1.88570265e-02 1.88680645e-02
      5.95568737e-04 -2.08539553e-02 -2.32238844e-02 -6.31154887e-03
      -1.70365628e-02 -4.36383905e-03 1.59658701e-03 1.37144290e-02
      2.36284882e-02 -1.88869273e-03 -5.70291094e-03 9.65916179e-03
      1.10661136e-02 1.00519671e-03 -4.26552817e-03 -7.44925486e-03
      5.37605956e-03 1.15082562e-02 8.80519021e-03 -8.36784765e-03
      -2.33009923e-02 -1.51678559e-03 6.36693649e-03 -1.63566228e-03
      -1.25024945e-03 1.74497236e-02 1.91698484e-02 -1.31493649e-02
      -7.42056640e-03 1.93186346e-02 2.81927194e-02 4.33872780e-03
      4.25323000e-04 -1.28565989e-02 -2.37576151e-03 -1.62122045e-02
      6.78686600e-04 -2.56651193e-02 -8.01642146e-03 7.64592597e-03
      -1.41219317e-03 4.71925782e-03 2.58288905e-03 3.99572914e-03
      -8.03633535e-04 1.02712605e-02 -2.16705147e-02 -6.65881252e-03
      1.49001554e-02 1.51963462e-03 2.08142418e-02 1.89861227e-02
      -1.75289379e-03 1.85833927e-02 -2.75756661e-02 -1.88084394e-02
      1.61524564e-02 2.97524128e-02 -4.70199576e-03 1.69119367e-03
      -4.31032712e-03 -6.28298940e-03 -1.13787102e-02 -2.18374771e-03
      -1.49060069e-02 7.90679362e-04 3.55156586e-02 -7.65235582e-03
      -3.07368953e-03 -3.17206653e-03 -1.29137316e-03 1.28349531e-02
      -1.75800901e-02 -6.19126204e-03 6.05118880e-03 4.45574149e-03
      9.36870929e-03 3.11144092e-03 1.88059604e-03 1.53206557e-03
      5.66522358e-03 -2.10086597e-04 -1.43916998e-03 8.70252866e-03
      9.57458187e-03 1.64243560e-02 -5.06132375e-04 -1.79576948e-02
      -2.36312896e-02 5.68455085e-04 -6.17761165e-03 1.86924427e-03
      9.80409561e-04 -1.81477540e-03 -7.05261622e-03 9.04456596e-04
      6.97421376e-04 -1.50435399e-02 2.56531127e-03 1.10527603e-02
      -5.52600762e-03 3.45829962e-04 2.62472662e-03 -3.56782391e-03
      -3.27622960e-03 -8.58817063e-03 2.92259827e-03 2.44206414e-02
      4.63426672e-03 -1.26943793e-02 8.74188438e-04 7.86811952e-03
      2.40074540e-03 -2.80017755e-03 -1.95663795e-02 -1.43146021e-02
      6.32107211e-03 5.72385080e-03 -1.55067565e-02 8.96028336e-03
      1.51752094e-02 7.34350551e-03 3.21776629e-03 -4.61993832e-03
      -6.57034665e-03 5.53988060e-03 -1.28462433e-03 -1.63387991e-02
      -4.70591662e-03 6.65807817e-03 -3.97297414e-03 -1.22236498e-02
      -3.53352800e-02 1.37390466e-02 2.45285667e-02 1.67482458e-02
      -1.86691713e-02 -2.43510329e-03 9.30694304e-03 7.65185384e-03
      -3.93625861e-03 -1.43807977e-02 5.58914850e-03 1.98580343e-02
      8.05706717e-03 -4.78010485e-03 6.95695635e-04 3.47818877e-03
      1.75664679e-03 1.16125494e-02 9.82887857e-03 -1.75593253e-02
      -1.64340730e-04 3.11832089e-04 -3.66096920e-03 -1.20159134e-03
      -7.52782391e-04 -1.12910476e-02 -1.11277113e-02 1.12584140e-02
      -4.50105034e-03 -5.25270915e-03 1.76108815e-02 -8.62716790e-03
      -8.59840214e-03 -2.31227349e-03 -5.24855859e-04 6.39322121e-03
      9.93890688e-04 1.36141304e-03 -5.77885890e-03 3.53786163e-03
      -7.22722476e-03 -2.18786928e-03 -5.74898254e-03 -1.07745705e-02
      -4.67894273e-03 1.81616598e-03 -2.24191248e-02 7.02081714e-03
      -1.07340245e-02 -2.25915239e-04 6.01417664e-03 1.77292321e-02
      1.12866727e-03 -1.54887000e-02 1.33747263e-02 3.07994080e-03
      -2.28349585e-02 -1.71070453e-02 -4.04092111e-03 -4.74555837e-03
      9.50744748e-03 5.13862446e-03 2.70152912e-02 1.11512542e-02
      2.60392739e-03 -1.51820611e-02 1.13993995e-02 5.09108510e-03
      8.81978404e-03 9.10379738e-03 -4.82611125e-04 -1.63542908e-02
      -3.96935456e-03 3.16838361e-03 -5.90145588e-03 6.42494392e-03
      6.42241072e-03 -2.53387168e-03 -4.49446263e-03 -7.34026171e-03
      -8.65890738e-03 1.34846277e-03 1.10564316e-02 5.31480508e-03
      -6.42222213e-03 -5.63372951e-03 -1.16839670e-02 -2.55056843e-03
      6.52864492e-06 3.62437330e-02 1.76149607e-02 8.02349951e-03
      -5.37064439e-03 -3.22493422e-03 -8.35043727e-04 -1.19134327e-02
      -2.38598678e-02 -1.07293427e-02 5.93881309e-03 3.03020738e-02
      1.50187081e-02 2.70923076e-04 -2.23420863e-03 -3.50899674e-04
      -2.77462741e-03 -9.66625009e-03 -2.04229616e-02 -7.64109939e-03
      3.11382231e-03 2.48550195e-02 -2.60245474e-03 -1.05539681e-02
      -3.63203580e-03 2.98964814e-03 -2.95430701e-03 -3.03610116e-02
      -2.20123027e-02 -8.48788954e-03 2.02050228e-02 1.00578589e-03
      3.36347031e-03 1.24210119e-03 -8.46194383e-03 -9.59233940e-03
      -1.35837486e-02 5.52213890e-03 1.81779154e-02 1.31931598e-03
      -3.05579696e-03 1.13342423e-02 4.21172753e-03 -4.48465860e-03
      -9.47240088e-03 -1.73526946e-02 -5.99777047e-03 -2.93319026e-04
      1.23576811e-02 4.67924122e-03 7.53970537e-03 7.12753274e-04
      1.81101259e-05 -7.42778357e-04 -1.88105255e-02 -1.72781497e-02
      -9.53460298e-03 -4.64391522e-03 1.49580194e-02 1.71702821e-02
      4.57817269e-03 -1.08624585e-02 -8.77874345e-03 -1.53379338e-02
      -1.77681465e-02 -1.80445928e-02 -7.26786908e-03 1.29094170e-02
      1.03325462e-02 8.54621548e-03 -5.27014839e-04 -5.29925128e-05
      -1.93593707e-02 -1.05552897e-02 -1.62407905e-02 1.76027548e-02
      1.30175902e-02 7.24831456e-03 6.94792345e-03 7.26237893e-03
      5.68485539e-03 -1.78122222e-02 -1.61698814e-02 -1.12502845e-02
      1.34487962e-02 1.01189148e-02 2.64167488e-02 3.82538000e-03
      -6.63108705e-03 -9.08790901e-03 -2.20315102e-02 -2.99050752e-02
      -2.20062751e-02 5.82812866e-03 2.92024985e-02 1.73280369e-02
      6.58854470e-03 2.92039447e-04 -9.99490544e-03 -2.68540438e-02
      -2.02426165e-02 -1.54375453e-02 -3.25811724e-03 3.79340537e-02
      1.23566827e-02 9.91971418e-03 7.00736325e-03 1.44508639e-02
      -1.51142813e-02 -1.30502339e-02 -1.23241497e-02 3.44403530e-03
      -1.42049231e-03 1.49342101e-02 8.43650289e-03 2.48011854e-03
      5.03610959e-03 -1.05223879e-02 -2.23791134e-02 -6.29481114e-03
      -9.33274813e-03 5.00552414e-04 3.67251933e-02 6.81555318e-03
      -3.21239606e-03 -8.45807791e-03 -3.29240970e-02 -2.16321535e-02
      -2.72044372e-02 4.06532129e-03 3.21458876e-02 2.72479486e-02
      1.61630400e-02 -6.27871091e-03 -6.48577139e-03 -8.62352457e-03
      -7.12054363e-03 -1.16987759e-02 1.54893091e-02 1.63847376e-02
      1.43812317e-02 5.29889250e-03 4.18030098e-03 -2.16322398e-04
      -2.02245894e-03 -2.34670397e-02 -3.35870450e-03 -2.33587320e-03
      -1.01100244e-02 3.99061391e-04 -7.85900559e-03 -5.03081828e-03
      -4.66723926e-03 3.23729729e-03 3.03847948e-03 1.43378852e-02
      5.17760986e-04 -1.00482740e-02 2.20366661e-02 1.80181749e-02
      1.00371130e-02 -1.27335470e-02 -7.76080089e-03 -9.39107779e-03
      -1.74287856e-02 8.38650484e-03 1.50842723e-02 6.29039202e-03
      -3.08813783e-03 1.07394578e-03 -6.42174715e-03 -3.17034055e-03
      -1.00591611e-02 -3.82291735e-03 7.74904061e-03 8.86970572e-03
      -1.34959519e-02 -1.66145507e-02 -1.20471856e-02 -8.43032543e-03
      -7.42047187e-03 1.25233573e-03 9.85268783e-03 1.38279013e-02
      -1.20568257e-02 4.48045248e-05 -1.58844478e-02 2.32297997e-03
      5.57584129e-03 -1.22241285e-02 -3.64413671e-03 6.04583928e-03
      1.53643806e-02 -2.15587136e-03 1.34505099e-02 -6.52399287e-03
      -5.61323809e-03 -6.05939981e-03 -1.78462211e-02 -5.62489126e-03
      -9.98087600e-03 1.37349323e-03 -5.48908720e-03 2.04096967e-03
      3.68880224e-03 -8.31589010e-03 6.44707866e-03 -1.75576508e-02
      -1.51462702e-03 -7.10598892e-03 6.22166414e-03 8.95819906e-03
      -7.41283596e-03 -1.14219245e-02 -4.54322784e-04 -1.56548973e-02
      -8.99106264e-03 -8.73251259e-03 -1.20708821e-02 3.71662690e-03
      -2.03406699e-02 1.44694364e-02 9.42967273e-03 -1.20713282e-02
      -3.12591083e-02 -3.94568639e-03 -2.37894971e-02 -3.35552394e-02
      1.76616870e-02 1.75282340e-02 6.11924380e-03 -1.20235244e-02
      -2.04829164e-02 -2.68532359e-03 -1.38632841e-02 -7.91751500e-03
      -9.60208103e-03 -5.28687285e-03 -1.58539406e-04 2.53460743e-02
      8.87951627e-03 -2.60284897e-02 -2.32991669e-02 -2.47694980e-02
      -2.75445972e-02 -1.55642768e-02 4.10888670e-03 3.53753045e-02
      7.95991626e-03 3.03830113e-02 -4.13364451e-03 -7.22013367e-03
      3.44694778e-03 -1.09999040e-02 -4.12359722e-02 3.16550536e-03
      1.18820835e-02 3.87141539e-04 3.07256728e-03 1.99988033e-04
      5.66187175e-03 -5.35620004e-03 -1.09164109e-02 -2.05223858e-02
      -1.69239920e-02 -8.84068292e-03 3.45118865e-02 -6.52885530e-03
      -2.07034871e-02 -1.22911986e-02 -1.35535402e-02 -1.14173116e-02
      -1.42340139e-02 6.16086926e-03 4.30309735e-02 1.27093522e-02
      -9.29229334e-03 -2.81828325e-02 -3.13351233e-03 -1.29951555e-02
      -1.04661966e-02 -9.71976295e-03 1.06705483e-02 8.39755312e-03
      1.17072808e-02 4.50017117e-03 -6.10282784e-03 -3.92333517e-04
      -3.95669090e-03 -4.68973676e-03 -1.38488680e-03 -2.20471853e-03
      2.55918037e-03 3.71512515e-03 -9.16237623e-05 -1.51273925e-02
      -5.75178396e-03 1.88113621e-03 9.44294222e-03 3.47282458e-03
      1.25985164e-02 1.30000236e-02 -3.13032605e-03 -3.31703722e-02
      -1.51293613e-02 1.71663880e-03 -1.86283421e-03 9.51934047e-03
      6.45929715e-03 1.98089555e-02 2.28907913e-03 -5.45644108e-03
      -2.13011224e-02 1.32149973e-04 8.12441949e-03 -2.62712874e-03
      3.19691300e-02 2.92948037e-02 4.56693321e-02 3.23866121e-03
      -4.49447427e-04 3.68395424e-03 -1.51334133e-03 6.30153157e-03
      1.33715954e-03 -1.20967925e-04 -3.33237462e-03 1.37887616e-03
      1.68566650e-03 -6.99158758e-03 1.17657203e-02 3.67802102e-03
      8.64973851e-03 -1.45196298e-03 -2.31917505e-03 -7.15277763e-03
      -8.28710571e-03 4.25840961e-03 -1.03523312e-02 -2.37499047e-02
      3.13076400e-03 8.74529500e-03 -2.94091646e-04 1.07238060e-02
      3.00373510e-02 3.95563096e-02 1.66678820e-02 -1.46769211e-02
      -2.93397233e-02 -5.48100704e-03 4.62108245e-03 2.51579937e-03
      4.58258577e-03 1.81245673e-02 2.02091523e-02 5.41105447e-03
      -1.24154510e-02 1.05501264e-02 1.30683053e-02 2.40191873e-02
      7.27328379e-03 6.76955446e-04 -1.31429266e-03 -6.81040285e-04
      -3.19661020e-04 -3.49143073e-02 -1.34254051e-02 1.53671717e-02
      3.14978063e-02 2.62366086e-02 -5.32862832e-05 1.37292652e-03
      3.13973823e-03 -7.65334815e-03 -1.22577203e-02 -2.51234863e-02
      1.68554839e-02 1.02088265e-02 7.23895011e-03 2.52343481e-03
      1.14162602e-02 2.01209262e-02 2.09650658e-02 -5.35192247e-03
      -1.21659674e-02 3.02569047e-02 3.03393751e-02 2.48824842e-02
      4.03435435e-03 1.22296959e-02 1.29467258e-02 7.85820466e-03
      1.33535536e-02 7.13368552e-03 9.58757824e-04 8.43343441e-04
      5.04155876e-03 4.02479758e-03 1.31107224e-02 -5.93517092e-04
      -1.70404073e-02 7.07877893e-03 1.68163865e-03 8.18794651e-04
      1.61837903e-03 9.23055783e-03 3.82299069e-03 4.50635515e-03
      8.32139608e-03 -6.98509114e-03 -1.80318840e-02 4.19748714e-03
      2.19779089e-03 2.53586262e-03 1.09565044e-02 1.05391033e-02
      2.14290489e-02 7.67868152e-03 -1.22201759e-02 -1.42134028e-02
      4.54151956e-03 4.36016545e-03 1.94433378e-03 1.64891109e-02
      1.15057901e-02 1.81807932e-02 -4.40130290e-03 -1.22977868e-02
      -1.38435152e-03 -1.48174504e-03 -2.64926814e-04 5.50157274e-04
      9.80402622e-03 3.27954884e-04 5.51148114e-05 1.16629098e-02
      5.97202079e-03 -1.42324306e-02 -8.52270611e-03 -3.38579318e-03
      5.34787250e-04 9.96198691e-03 1.08836580e-03 6.55010995e-03
      2.23325100e-02 2.56329607e-02 -2.25480888e-02 1.36797992e-03
      -7.83595897e-04 -2.68309028e-03 1.39759565e-02 1.93524570e-03
      8.79935222e-04 -1.22728397e-03 -1.46347163e-02 -1.09142261e-02
      -1.43273957e-02 -7.86043797e-03 -1.31518662e-03 9.95423552e-03
      -2.04883912e-03 -2.48316233e-03 2.66868379e-02 -1.45661207e-02
      -1.05312066e-02 -1.09305140e-02 -6.31667534e-03 -1.96506517e-05
      3.97871714e-03 2.71349493e-03 1.12881837e-02 9.79387853e-03
      9.31127928e-03 7.18850270e-03 -4.23608953e-03 -1.49019400e-03
      5.87175135e-04 5.49028022e-03 3.41702485e-03 2.68948846e-03
      3.52425966e-03 -1.56283635e-03 -1.93474982e-02 -1.52266575e-02
      -7.50851212e-03 1.57008530e-03 2.42043170e-03 -6.15966227e-03
      -1.86365927e-04 4.53659445e-02 -1.31716672e-02 -1.85062904e-02
      -4.97112470e-03 -1.01220922e-03 -2.03854754e-03 5.86750032e-03
      -3.25748406e-04 -3.66017362e-03 3.16684716e-03 -8.94357171e-03
      2.07624976e-02 3.67270177e-03 2.00970634e-03 5.83139365e-04
      2.49250280e-03 -5.28853794e-04 -6.81497110e-03 -6.20636577e-03
      2.68943288e-04 2.10898407e-02 2.75759422e-03 -1.38427014e-03
      -1.01541856e-03 -5.35957702e-03 -1.93682276e-02 -2.14495454e-02
      -4.83268115e-04 8.16508196e-03 -8.28906149e-03 1.42019941e-02
      4.14240360e-03 -2.10663234e-03 4.75131720e-03 4.56116255e-03
      -4.04466875e-03 1.37711223e-02 -8.53928179e-03 1.85705256e-03
      8.54033977e-03 7.07859732e-03 1.14533002e-03 6.83819363e-03
      -6.73004100e-03 -9.30499006e-03 9.18170717e-03 -8.91839433e-03
      2.56722271e-02 4.15746588e-03 8.18358036e-04 2.37228698e-04
      2.71929963e-03 -2.90265009e-02 -2.56936140e-02 7.54453102e-03
      1.73576754e-02 2.21890621e-02 3.91382258e-03 2.81283306e-03
      -4.08386171e-04 2.57955701e-03 -1.63653456e-02 -1.89150497e-02
      1.14400368e-02 1.25876237e-02 8.28253571e-03 7.43599795e-03
      5.55126229e-03 4.09310497e-03 1.10675674e-02 -1.70954168e-02
      -1.45730507e-02 -4.18477459e-03 1.84709730e-03 1.98311894e-03
      7.12431269e-03 1.43334677e-03 -9.98030184e-04 6.71251258e-03
      -1.22716213e-02 -2.35245135e-02 -1.64894518e-02 1.98311894e-03
      1.17366584e-02 3.58012482e-03 -2.31270271e-04 -1.50441157e-03
      -1.27533113e-03 6.27365138e-04 4.64950244e-05 4.22006473e-03
      9.31030232e-03 1.61031466e-02 4.47386235e-04 -5.46744186e-03
      -4.56145965e-03 -2.77364813e-03 -4.53480287e-03 8.28030054e-03
      1.61322416e-03 1.39094722e-02 -1.09162098e-02 5.81162795e-03
      -2.44673504e-03 -3.53582087e-03 -5.36782388e-03 1.16604741e-03
      -1.10173447e-03 -2.54924106e-03 -1.12804798e-02 -1.09162098e-02
      2.92308498e-02 -8.41287547e-04 -5.07102022e-03 -1.30724190e-02
      6.25946233e-03 1.16960693e-03 -6.23242790e-03 -1.21073723e-02
      1.98201407e-02 -9.72824637e-03 -6.31884579e-03 -1.70597443e-04
      -5.67017775e-03 -4.72907815e-03 1.13508590e-02 9.53069236e-03
      3.35973017e-02 -7.06161605e-03 -1.40592000e-02 -5.27996290e-03
      4.22594574e-04 -8.54435563e-03 -3.72082368e-03 -5.05880336e-04
      9.36238933e-03 3.48755158e-02 -8.04891624e-03 -1.32302765e-03
      2.10823468e-03 3.37627227e-03 -4.82508121e-03 1.43103208e-03
      1.46891107e-03 3.47048976e-03 -8.62242281e-03 -1.22089814e-02
      -2.66796649e-02 -9.28349700e-03 -9.03445645e-04 -1.74576752e-02
      -7.32125947e-03 -2.32056924e-03 2.85346550e-03 -6.28141500e-03
      6.05707383e-03 -1.10675441e-02 -1.37638077e-02 -1.21958274e-02
      -1.46452580e-02 -2.95339921e-03 4.96428111e-04 1.25551373e-02
      3.83968391e-02 1.85364820e-02 7.26674870e-03 -7.63407722e-03
      1.62605266e-03 -7.36749778e-03 -1.00613898e-03 3.42870411e-03
      1.48491580e-02 2.54277512e-02 -7.77861103e-03 -5.74002136e-03
      -1.94863006e-02 -1.06782848e-02 -2.09716521e-02 -5.05821779e-03
      -7.05008721e-03 -7.01391231e-03 -5.36860991e-03 -4.04383725e-04
      2.31220201e-03 -1.73971690e-02 -9.79185384e-03 -2.96442378e-02
      -4.60396567e-03 -8.55530333e-03 -1.10100675e-03 -2.10541952e-03
      2.17862576e-02 7.14193191e-03 -1.84130308e-03 -8.19072872e-03
      3.91370011e-03 -1.01896226e-02 -8.45287554e-03 9.11163632e-03
      2.31992081e-02 1.32307401e-02 -1.72128039e-03 -7.80679099e-03
      -6.35840464e-03 -7.47316238e-03 -4.80984431e-03 -2.57671904e-03
      9.91851557e-03 2.29602661e-02 -4.61054593e-03 -4.75288276e-03
      -1.17114745e-02 -3.98363685e-03 -3.33762281e-02 -1.70023479e-02
      -1.19163292e-02 -3.26730683e-03 -5.46342635e-04 8.73408746e-04
      -1.49632739e-02 -1.26763219e-02 8.39791354e-03 -4.72749304e-03
      -1.14637129e-02 -1.36203673e-02 1.39583107e-02 -1.00864945e-02
      1.82616636e-02 -2.48252507e-03 -5.81920519e-03 -2.12217984e-03
      -1.50434095e-02 -3.55603173e-03 -3.58794071e-03 4.31458326e-03
      2.05345228e-02 2.05670726e-02 -4.87886416e-03 -4.49858606e-03
      -3.33426346e-04 -7.36443792e-03 -4.10596048e-03 -5.27261384e-03
      -3.78793897e-03 1.98280774e-02 7.78035913e-03 -1.16695166e-02
      -2.41305064e-02 -1.38223162e-02 -1.34282112e-02 -7.96917081e-03
      -3.62846279e-03 1.84640742e-03 5.45205688e-03 1.00989854e-02
      -4.12364751e-02 -1.95150152e-02 -1.16456999e-02 -2.53385585e-03
      -2.64766999e-03 3.71942442e-04 -1.30547006e-02 -1.33119896e-03
      2.17691027e-02 3.22334445e-03 -1.31423660e-02 4.63665649e-03
      2.24463199e-03 -1.07471540e-03 -3.58337769e-03 -1.24060956e-03
      3.10870074e-02 2.61362214e-02 -1.27593102e-02 -2.18227431e-02
      6.12258352e-03 1.71477394e-03 -6.94536255e-04 -1.22973789e-03
      -2.21913075e-03 4.20814008e-02 1.03096571e-03 -3.97339202e-02
      -2.75309496e-02 -3.29309423e-03 1.56395994e-02 7.46240781e-04
      6.96267514e-03 6.57398021e-03 1.21484539e-02 -1.26384124e-02
      -5.51128685e-02 -3.30153145e-02 -1.35487551e-02 1.26585988e-02
      5.18441154e-03 1.20248366e-02 2.20137052e-02 1.09163634e-02
      1.56897679e-02 -3.95750552e-02 -1.99168604e-02 -2.05800706e-03
      3.92630370e-03 1.36246404e-03 3.16569302e-03 9.46208090e-03
      3.08253095e-02 1.40663348e-02 -2.15675924e-02 -3.45780328e-02
      -7.20243028e-04 5.07641491e-03 4.32857219e-03 1.57017317e-02
      2.19884235e-02 1.25965681e-02 -1.80708207e-02 -6.37644455e-02
      -3.23835351e-02 -9.46878362e-03 6.20542932e-03 9.94620565e-03
      1.42352227e-02 3.09251994e-02 2.75497474e-02 4.53705015e-03
      -3.90692316e-02 -3.33883800e-02 -1.03618857e-02 2.97580403e-03
      9.72974114e-03 2.58620102e-02 4.13259640e-02 2.38189362e-02
      -2.32489090e-02 -4.90711965e-02 -2.63787750e-02 -1.08514563e-03
      3.07687139e-03 4.79831733e-03 1.78508759e-02 2.13349611e-02
      -1.42689571e-02 -1.27589181e-02 -5.19948192e-02 -6.92503573e-03
      1.96739356e-03 9.57956596e-04 1.27222640e-02 3.65113728e-02
      4.25680280e-02 7.23451376e-03 -1.29380226e-02 -3.58730778e-02
      -2.09349748e-02 -6.85455324e-03 4.18279460e-03 -6.54554507e-03
      2.23392881e-02 3.28087732e-02 9.32102464e-03 2.56780200e-02
      -1.42439604e-02 -1.19082732e-02 -4.55521047e-03 -1.99900242e-03
      -1.16484321e-03 2.95789987e-02 5.52818365e-02 3.68043743e-02
      -2.09523812e-02 -5.81490993e-02 -3.44703458e-02 -3.54316039e-03
      -1.68488882e-02 3.31903738e-03 3.01255565e-02 3.93730663e-02
      4.71467432e-03 -2.69091241e-02 -4.60373536e-02 -1.68468449e-02
      3.94717033e-04 -5.50234597e-03 4.20276495e-03 2.61115674e-02
      2.41156202e-02 6.41355244e-03 2.97276154e-02 -6.88213576e-03
      -1.66546330e-02 -1.13327987e-02 -2.43890379e-02 -5.30265598e-03
      3.25894020e-02 4.82193381e-02 3.93924974e-02 1.12947803e-02
      9.72062349e-03 -6.51947735e-03 -6.33326126e-03 -1.02427313e-02
      1.63239345e-03 2.90032960e-02 2.88929101e-02 3.23303230e-02
      -2.12449674e-02 -1.69026367e-02 2.95914570e-03 -2.21992610e-03
      -8.50492436e-03 1.39818725e-03 2.15845536e-02 2.52394397e-02
      1.58410752e-03 -2.31768899e-02 -1.95288379e-02 1.92739051e-02
      2.20792331e-02 -1.25442492e-02 -1.15199736e-03 2.03338489e-02
      1.20923948e-02 -1.83230080e-02 8.34163092e-03 2.09579840e-02
      1.62787195e-02 -3.33124422e-03 1.32963352e-03 3.75014008e-03
      1.47046112e-02 2.39278171e-02 2.16654129e-02 2.06887461e-02
      8.48203525e-03 2.81974003e-02 6.93463255e-03 -1.55400531e-02
      6.11317228e-04 2.05136724e-02 2.37623230e-02 1.71187948e-02</_></support_vectors>
  <decision_functions>
    <_>
      <sv_count>1</sv_count>
      <rho>-3.6581704790467851e-01</rho>
      <alpha>
        1.</alpha>
      <index>
        0</index></_></decision_functions></my_svm>
</opencv_storage>
