<?xml version="1.0"?>
<opencv_storage>
<my_svm type_id="opencv-ml-svm">
  <svm_type>C_SVC</svm_type>
  <kernel><type>RBF</type>
    <gamma>5.0625000000000009e-01</gamma></kernel>
  <C>3.1250000000000000e+02</C>
  <term_criteria><epsilon>2.2204460492503131e-16</epsilon>
    <iterations>100</iterations></term_criteria>
  <var_all>10</var_all>
  <var_count>10</var_count>
  <class_count>10</class_count>
  <class_labels type_id="opencv-matrix">
    <rows>1</rows>
    <cols>10</cols>
    <dt>i</dt>
    <data>
      1 2 3 4 5 6 7 8 9 10</data></class_labels>
  <sv_total>69</sv_total>
  <support_vectors>
    <_>
      0. 1.26760557e-01 4.22535203e-02 8.45070407e-02 1.12676054e-01
      1.40845060e-01 8.45070407e-02 8.45070407e-02 1.40845060e-01
      1.83098584e-01</_>
    <_>
      6.17283955e-02 9.87654328e-02 6.17283955e-02 4.93827164e-02
      4.93827164e-02 2.96296299e-01 2.46913582e-02 1.23456791e-01
      1.48148149e-01 8.64197537e-02</_>
    <_>
      1.36842117e-01 7.36842155e-02 1.15789481e-01 7.36842155e-02
      6.31579012e-02 1.57894745e-01 1.26315802e-01 7.36842155e-02
      5.26315793e-02 1.26315802e-01</_>
    <_>
      8.99999961e-02 1.99999996e-02 5.99999987e-02 1.09999999e-01
      4.99999970e-02 2.89999992e-01 1.59999996e-01 8.99999961e-02
      8.99999961e-02 3.99999991e-02</_>
    <_>
      1.58415839e-01 6.93069324e-02 8.91089067e-02 5.94059378e-02
      5.94059378e-02 1.58415839e-01 1.98019803e-01 1.28712863e-01
      5.94059378e-02 1.98019799e-02</_>
    <_>
      2.29999989e-01 3.99999991e-02 9.99999940e-02 2.99999993e-02
      9.99999978e-03 7.00000003e-02 2.19999999e-01 9.99999940e-02
      2.99999993e-02 1.70000002e-01</_>
    <_>
      1.29999995e-01 5.99999987e-02 9.99999940e-02 4.99999970e-02
      7.99999982e-02 3.99999991e-02 2.09999993e-01 3.99999991e-02
      7.99999982e-02 2.09999993e-01</_>
    <_>
      1.08910888e-01 1.08910888e-01 8.91089067e-02 8.91089067e-02
      7.92079195e-02 1.08910888e-01 4.95049506e-02 1.28712863e-01
      1.38613865e-01 9.90099013e-02</_>
    <_>
      1.89999998e-01 1.29999995e-01 1.59999996e-01 7.99999982e-02
      1.09999999e-01 5.99999987e-02 9.99999940e-02 1.99999996e-02
      1.09999999e-01 3.99999991e-02</_>
    <_>
      0. 1.59999996e-01 1.49999991e-01 1.09999999e-01 2.99999993e-02
      7.00000003e-02 9.99999940e-02 1.70000002e-01 1.70000002e-01
      3.99999991e-02</_>
    <_>
      2.39999995e-01 1.40000001e-01 5.99999987e-02 4.99999970e-02
      5.99999987e-02 4.99999970e-02 7.99999982e-02 5.99999987e-02
      1.89999998e-01 7.00000003e-02</_>
    <_>
      1.99999988e-01 8.99999961e-02 7.00000003e-02 5.99999987e-02
      1.29999995e-01 1.19999997e-01 1.19999997e-01 1.99999996e-02
      1.19999997e-01 7.00000003e-02</_>
    <_>
      5.99999987e-02 1.59999996e-01 1.19999997e-01 9.99999940e-02
      3.99999991e-02 1.19999997e-01 7.00000003e-02 1.09999999e-01
      1.59999996e-01 5.99999987e-02</_>
    <_>
      1.79999992e-01 1.19999997e-01 9.99999940e-02 8.99999961e-02
      1.09999999e-01 8.99999961e-02 1.09999999e-01 4.99999970e-02
      7.99999982e-02 7.00000003e-02</_>
    <_>
      1.28712863e-01 1.38613865e-01 7.92079195e-02 1.08910888e-01
      8.91089067e-02 3.96039598e-02 1.28712863e-01 4.95049506e-02
      1.68316826e-01 6.93069324e-02</_>
    <_>
      1.05263159e-01 1.31578952e-01 6.57894760e-02 9.21052620e-02
      1.31578952e-01 1.31578952e-01 1.31578952e-01 5.26315793e-02
      9.21052620e-02 6.57894760e-02</_>
    <_>
      1.29032254e-01 9.67741907e-02 1.07526883e-01 6.45161271e-02
      4.30107526e-02 1.50537640e-01 6.45161271e-02 1.50537640e-01
      1.50537640e-01 4.30107526e-02</_>
    <_>
      1.89999998e-01 1.29999995e-01 4.99999970e-02 2.99999993e-02
      9.99999978e-03 8.99999961e-02 7.99999982e-02 2.80000001e-01
      9.99999940e-02 3.99999991e-02</_>
    <_>
      3.79746854e-02 1.64556965e-01 6.32911399e-02 7.59493709e-02
      5.06329127e-02 1.13924056e-01 1.01265825e-01 1.51898742e-01
      2.15189874e-01 2.53164563e-02</_>
    <_>
      1.49999991e-01 8.99999961e-02 1.19999997e-01 4.99999970e-02
      4.99999970e-02 9.99999940e-02 1.59999996e-01 1.59999996e-01
      9.99999940e-02 1.99999996e-02</_>
    <_>
      8.19672048e-02 1.31147534e-01 1.63934417e-02 3.27868834e-02
      6.55737668e-02 2.62295067e-01 1.47540972e-01 1.63934417e-02
      1.80327863e-01 6.55737668e-02</_>
    <_>
      8.45070407e-02 1.40845060e-01 5.63380271e-02 1.26760557e-01
      7.04225302e-02 8.45070407e-02 8.45070407e-02 8.45070407e-02
      1.12676054e-01 1.54929578e-01</_>
    <_>
      4.21052650e-02 1.47368431e-01 1.26315802e-01 1.15789481e-01
      4.21052650e-02 1.78947374e-01 7.36842155e-02 9.47368443e-02
      1.26315802e-01 5.26315793e-02</_>
    <_>
      2.07920790e-01 1.08910888e-01 1.48514852e-01 1.08910888e-01
      8.91089067e-02 2.97029689e-02 8.91089067e-02 6.93069324e-02
      1.28712863e-01 1.98019799e-02</_>
    <_>
      7.99999982e-02 1.79999992e-01 1.49999991e-01 1.29999995e-01
      5.99999987e-02 7.99999982e-02 1.59999996e-01 3.99999991e-02
      1.09999999e-01 9.99999978e-03</_>
    <_>
      1.99999988e-01 5.99999987e-02 4.99999970e-02 9.99999940e-02
      5.99999987e-02 1.40000001e-01 1.29999995e-01 9.99999940e-02
      1.19999997e-01 3.99999991e-02</_>
    <_>
      2.04081628e-02 1.42857134e-01 4.08163257e-02 1.83673471e-01
      6.12244904e-02 1.22448981e-01 1.02040812e-01 6.12244904e-02
      1.42857134e-01 1.22448981e-01</_>
    <_>
      6.15384616e-02 7.69230798e-02 6.15384616e-02 9.23076943e-02
      1.23076923e-01 1.53846160e-01 9.23076943e-02 9.23076943e-02
      2.15384617e-01 3.07692308e-02</_>
    <_>
      6.93069324e-02 1.38613865e-01 4.95049506e-02 1.28712863e-01
      9.90099013e-02 1.68316826e-01 6.93069324e-02 6.93069324e-02
      1.18811876e-01 8.91089067e-02</_>
    <_>
      2.38095239e-01 9.52380970e-02 0. 0. 0. 1.42857149e-01
      4.76190485e-02 0. 1.90476194e-01 2.85714298e-01</_>
    <_>
      2.00000003e-01 1.00000001e-01 2.50000004e-02 0. 2.50000004e-02
      1.25000000e-01 7.50000030e-02 2.50000004e-02 1.74999997e-01
      2.50000000e-01</_>
    <_>
      1.56250000e-01 1.25000000e-01 6.25000000e-02 0. 6.25000000e-02
      9.37500000e-02 6.25000000e-02 0. 6.25000000e-02 3.75000000e-01</_>
    <_>
      2.85714298e-01 1.42857149e-01 0. 3.57142873e-02 7.14285746e-02
      1.07142866e-01 1.07142866e-01 0. 7.14285746e-02 1.78571433e-01</_>
    <_>
      1.07142866e-01 1.42857149e-01 3.57142873e-02 1.07142866e-01
      3.57142873e-02 7.14285746e-02 7.14285746e-02 1.07142866e-01
      7.14285746e-02 2.50000000e-01</_>
    <_>
      9.67741907e-02 3.22580636e-02 3.22580636e-02 9.67741907e-02
      9.67741907e-02 2.58064508e-01 3.22580636e-02 6.45161271e-02
      1.29032254e-01 1.61290318e-01</_>
    <_>
      5.00000007e-02 2.00000003e-01 5.00000007e-02 5.00000007e-02
      1.50000006e-01 5.00000007e-02 1.50000006e-01 0. 2.50000000e-01
      5.00000007e-02</_>
    <_>
      1.72413796e-01 1.03448272e-01 0. 1.37931034e-01 1.37931034e-01
      2.06896544e-01 3.44827585e-02 0. 1.72413796e-01 3.44827585e-02</_>
    <_>
      9.09090936e-02 9.09090936e-02 0. 9.09090936e-02 9.09090936e-02
      3.63636374e-01 9.09090936e-02 0. 1.81818187e-01 0.</_>
    <_>
      0. 0. 0. 0. 0. 5.00000000e-01 0. 0. 3.33333343e-01 1.66666672e-01</_>
    <_>
      0. 2.50000000e-01 0. 6.25000000e-02 6.25000000e-02 3.12500000e-01
      0. 0. 3.12500000e-01 0.</_>
    <_>
      0. 3.15789461e-01 0. 0. 1.05263159e-01 1.05263159e-01
      5.26315793e-02 0. 3.68421048e-01 5.26315793e-02</_>
    <_>
      8.69565234e-02 1.73913047e-01 0. 1.30434781e-01 0. 1.30434781e-01
      1.30434781e-01 4.34782617e-02 2.60869563e-01 4.34782617e-02</_>
    <_>
      4.34782617e-02 1.73913047e-01 0. 1.30434781e-01 0. 2.60869563e-01
      0. 0. 2.60869563e-01 1.30434781e-01</_>
    <_>
      0. 2.17391312e-01 4.34782617e-02 2.60869563e-01 2.17391312e-01
      8.69565234e-02 0. 0. 1.30434781e-01 4.34782617e-02</_>
    <_>
      9.43396240e-02 1.69811323e-01 1.88679248e-02 1.13207549e-01
      1.50943398e-01 1.69811323e-01 5.66037744e-02 0. 1.88679248e-01
      3.77358496e-02</_>
    <_>
      9.09090936e-02 1.81818187e-01 0. 1.13636367e-01 6.81818202e-02
      2.04545468e-01 0. 0. 2.95454562e-01 4.54545468e-02</_>
    <_>
      0. 2.08333343e-01 0. 1.25000000e-01 4.16666679e-02 2.50000000e-01
      4.16666679e-02 0. 2.08333343e-01 1.25000000e-01</_>
    <_>
      5.12820520e-02 2.56410271e-01 0. 1.02564104e-01 5.12820520e-02
      1.53846160e-01 2.56410260e-02 0. 3.07692319e-01 5.12820520e-02</_>
    <_>
      3.70370373e-02 1.85185194e-01 3.70370373e-02 1.29629627e-01
      9.25925970e-02 1.11111112e-01 5.55555560e-02 3.70370373e-02
      2.59259254e-01 5.55555560e-02</_>
    <_>
      2.70270288e-01 8.10810849e-02 0. 2.70270277e-02 0. 5.40540554e-02
      5.40540554e-02 2.16216221e-01 5.40540554e-02 2.43243247e-01</_>
    <_>
      1.30434781e-01 1.30434781e-01 0. 0. 4.34782617e-02 1.30434781e-01
      4.34782617e-02 0. 1.73913047e-01 3.47826093e-01</_>
    <_>
      4.00000006e-01 5.00000007e-02 0. 0. 0. 5.00000007e-02
      5.00000007e-02 1.50000006e-01 5.00000007e-02 2.50000000e-01</_>
    <_>
      2.12121218e-01 9.09090936e-02 0. 3.03030312e-02 0. 3.03030312e-02
      1.21212125e-01 1.21212125e-01 1.51515156e-01 2.42424250e-01</_>
    <_>
      5.26315793e-02 2.10526317e-01 0. 0. 0. 1.05263159e-01
      5.26315793e-02 0. 2.63157904e-01 3.15789461e-01</_>
    <_>
      0. 0. 0. 0. 0. 2.00000003e-01 1.00000001e-01 0. 1.00000001e-01
      6.00000024e-01</_>
    <_>
      2.18181819e-01 1.63636357e-01 0. 7.27272704e-02 1.09090909e-01
      5.45454547e-02 1.45454541e-01 0. 1.45454541e-01 9.09090862e-02</_>
    <_>
      9.85915512e-02 1.12676054e-01 4.22535203e-02 1.12676054e-01
      1.54929578e-01 7.04225302e-02 5.63380271e-02 2.81690136e-02
      1.69014081e-01 1.54929578e-01</_>
    <_>
      1.42857149e-01 1.42857149e-01 4.76190522e-02 9.52381045e-02
      1.11111119e-01 9.52381045e-02 3.17460336e-02 1.58730168e-02
      1.58730164e-01 1.58730164e-01</_>
    <_>
      1.11111112e-01 1.38888896e-01 2.77777780e-02 1.38888896e-01
      1.66666672e-01 5.55555560e-02 2.77777780e-02 0. 1.11111112e-01
      2.22222224e-01</_>
    <_>
      1.66666672e-01 1.66666672e-01 7.69230798e-02 3.84615399e-02
      6.41025677e-02 6.41025677e-02 6.41025677e-02 3.84615399e-02
      2.17948720e-01 1.02564104e-01</_>
    <_>
      1.99999988e-01 1.40000001e-01 1.99999996e-02 9.99999940e-02
      9.99999940e-02 7.99999982e-02 0. 0. 1.79999992e-01 1.79999992e-01</_>
    <_>
      1.91780820e-01 1.91780820e-01 2.73972601e-02 1.09589040e-01
      1.09589040e-01 9.58904102e-02 2.73972601e-02 1.36986300e-02
      1.78082198e-01 5.47945201e-02</_>
    <_>
      3.99999991e-02 1.09999999e-01 7.99999982e-02 5.99999987e-02
      1.49999991e-01 9.99999940e-02 2.99999993e-02 1.70000002e-01
      1.59999996e-01 9.99999940e-02</_>
    <_>
      2.97029689e-02 1.68316826e-01 9.90099013e-02 1.18811876e-01
      7.92079195e-02 1.18811876e-01 7.92079195e-02 5.94059378e-02
      1.28712863e-01 1.18811876e-01</_>
    <_>
      1.06666669e-01 1.73333332e-01 3.99999991e-02 1.33333340e-01
      6.66666701e-02 1.06666669e-01 1.46666676e-01 5.33333346e-02
      1.06666669e-01 6.66666701e-02</_>
    <_>
      1.70000002e-01 9.99999940e-02 5.99999987e-02 3.99999991e-02
      1.99999996e-02 8.99999961e-02 2.50000000e-01 9.99999940e-02
      9.99999940e-02 7.00000003e-02</_>
    <_>
      1.89999998e-01 1.89999998e-01 5.99999987e-02 9.99999940e-02
      8.99999961e-02 9.99999978e-03 1.19999997e-01 7.00000003e-02
      9.99999940e-02 7.00000003e-02</_>
    <_>
      7.00000003e-02 7.00000003e-02 9.99999940e-02 4.99999970e-02
      1.29999995e-01 5.99999987e-02 1.99999988e-01 1.49999991e-01
      8.99999961e-02 7.99999982e-02</_>
    <_>
      4.99999970e-02 1.19999997e-01 1.09999999e-01 1.19999997e-01
      9.99999940e-02 9.99999940e-02 1.19999997e-01 1.40000001e-01
      9.99999940e-02 3.99999991e-02</_></support_vectors>
  <decision_functions>
    <_>
      <sv_count>7</sv_count>
      <rho>-4.3815984013074794e-01</rho>
      <alpha>
        7.9990612639873561e+01 3.9711355993596871e+00
        4.6697929070853455e+01 7.3377595216685165e+01
        -8.6790417309814558e+01 -3.5375782226938817e+01
        -8.1871072990018490e+01</alpha>
      <index>
        0 1 2 4 7 9 11</index></_>
    <_>
      <sv_count>8</sv_count>
      <rho>-1.1396572892142891e+00</rho>
      <alpha>
        2.0086641844842640e+02 4.9791167624749541e+01
        3.1250000000000000e+02 2.8790749045344764e+01
        -8.2035340071219565e+01 -2.3023431764006611e+02
        -1.3973538353251922e+02 -1.3994329387471586e+02</alpha>
      <index>
        0 1 4 6 15 19 20 21</index></_>
    <_>
      <sv_count>7</sv_count>
      <rho>-1.6668294997447402e+00</rho>
      <alpha>
        7.8345340071876379e+01 6.7805582857143833e+01
        3.7977065141674515e+01 1.3261666254926217e+02
        -1.0698526347617592e+02 -1.3418651802218761e+02
        -7.5572869121593328e+01</alpha>
      <index>
        0 1 2 4 22 25 28</index></_>
    <_>
      <sv_count>6</sv_count>
      <rho>-8.7330566450825031e-01</rho>
      <alpha>
        1.0972408550001724e+02 5.4124360166898775e+01
        2.9204598427187097e+01 3.4057695176786424e+01
        -9.8750492065218623e+01 -1.2836024720567096e+02</alpha>
      <index>
        0 1 2 5 33 34</index></_>
    <_>
      <sv_count>8</sv_count>
      <rho>7.9925701673204608e-01</rho>
      <alpha>
        6.6068489812900379e+00 4.3099067772649583e+01
        2.8961995722039845e+01 -2.4664169090811336e+00
        -1.3598072410122869e+01 -3.7348361960761117e+01
        -8.9861212216784558e+00 -1.6268939974335893e+01</alpha>
      <index>
        0 1 3 35 36 37 38 41</index></_>
    <_>
      <sv_count>5</sv_count>
      <rho>-7.4147365484429115e-02</rho>
      <alpha>
        4.4637405239771390e+01 2.9854239449922829e+01
        -2.7289837615554823e+01 -4.0522998943161348e+01
        -6.6788081309780400e+00</alpha>
      <index>
        0 1 44 46 48</index></_>
    <_>
      <sv_count>5</sv_count>
      <rho>-4.5774363167699955e-01</rho>
      <alpha>
        2.2136585565375960e+01 4.0680798398305839e+01
        -2.1811640291842229e+00 -5.7637501419873260e+01
        -2.9987185146242710e+00</alpha>
      <index>
        0 5 49 52 54</index></_>
    <_>
      <sv_count>5</sv_count>
      <rho>-5.7570354744805141e-01</rho>
      <alpha>
        7.6270474648991311e+01 1.7942494773378854e+00
        2.5360452320577661e+01 -1.0253724452319452e+02
        -8.8793192371236029e-01</alpha>
      <index>
        0 2 6 56 59</index></_>
    <_>
      <sv_count>7</sv_count>
      <rho>-9.6143591266746864e-01</rho>
      <alpha>
        1.9613114407692456e+02 2.8288121623671020e+02
        1.1416945540911648e+02 -5.7245227989979171e+01
        -1.7509976459535417e+02 -2.3496371307275001e+02
        -1.2587311006466786e+02</alpha>
      <index>
        0 4 6 62 63 65 67</index></_>
    <_>
      <sv_count>10</sv_count>
      <rho>-7.9575468948506400e-01</rho>
      <alpha>
        3.1250000000000000e+02 1.9626732883693847e+02
        3.1250000000000000e+02 3.1250000000000000e+02
        1.2993360572748305e+01 -2.3907925161985006e+02
        -3.1250000000000000e+02 -1.9214538512897491e+02
        -9.0536052660861813e+01 -3.1250000000000000e+02</alpha>
      <index>
        7 9 11 12 13 15 16 18 19 21</index></_>
    <_>
      <sv_count>12</sv_count>
      <rho>7.3034550148702360e-01</rho>
      <alpha>
        3.9619794320639294e+01 1.5158776387741577e+02
        2.1881715284308726e+02 3.1250000000000000e+02
        3.1250000000000000e+02 3.9448353096888461e+01
        -1.2008483133098245e+02 -3.1250000000000000e+02
        -1.8116674035870284e+02 -1.1312718693958158e+02
        -6.5193005903626414e+01 -2.8240129960513747e+02</alpha>
      <index>
        8 9 11 12 13 14 22 23 24 25 27 28</index></_>
    <_>
      <sv_count>5</sv_count>
      <rho>8.4975855511127318e-01</rho>
      <alpha>
        4.4315150091899284e+01 5.9493815098953789e+01
        -4.2298789601527993e+01 -1.5451665201465813e+01
        -4.6058510387859286e+01</alpha>
      <index>
        7 11 32 33 34</index></_>
    <_>
      <sv_count>6</sv_count>
      <rho>7.4690473745217256e-01</rho>
      <alpha>
        2.9316691360738044e+01 2.5195862593881337e+01
        6.7545318101641882e+01 -5.4393874670065649e+01
        -4.4048966455383813e+01 -2.3615030930811759e+01</alpha>
      <index>
        11 12 14 35 36 41</index></_>
    <_>
      <sv_count>4</sv_count>
      <rho>-1.0539961342361780e-01</rho>
      <alpha>
        4.8929141712955683e+01 3.9795466994264466e+01
        -2.2496845196095475e+01 -6.6227763511124678e+01</alpha>
      <index>
        12 14 44 48</index></_>
    <_>
      <sv_count>5</sv_count>
      <rho>8.7915788234660900e-03</rho>
      <alpha>
        1.5722550493790756e+01 2.9986450219000616e+01
        -2.9877106893639122e-01 -4.0623081474577951e+01
        -4.7871481692770352e+00</alpha>
      <index>
        7 10 49 52 53</index></_>
    <_>
      <sv_count>6</sv_count>
      <rho>1.8512014466645410e-01</rho>
      <alpha>
        3.1105046263378972e+02 4.0211250817596557e+01
        1.7138498965271285e+02 -1.9769980225243819e+02
        -3.1185303695877525e+02 -1.3093863892885857e+01</alpha>
      <index>
        10 11 14 55 59 61</index></_>
    <_>
      <sv_count>9</sv_count>
      <rho>2.5823825431059593e+00</rho>
      <alpha>
        2.5024250473916791e+02 2.4609464863682396e+02
        3.1250000000000000e+02 2.5563470150637076e+02
        -1.7709066607727050e+02 -2.2743161473556174e+02
        -1.1351258435723365e+02 -3.0214326488859069e+02
        -2.4429372482370619e+02</alpha>
      <index>
        7 9 13 14 62 63 65 66 68</index></_>
    <_>
      <sv_count>11</sv_count>
      <rho>-1.6360146473743998e-02</rho>
      <alpha>
        3.1250000000000000e+02 3.1250000000000000e+02
        4.4692333261723462e+01 1.0396974785432255e+02
        1.6457148611858116e+02 -1.7071601240666453e+02
        -4.3613631580398874e+01 -4.5958235853370404e+01
        -2.5094239984405789e+02 -1.1450328755013552e+02
        -3.1250000000000000e+02</alpha>
      <index>
        15 16 18 20 21 22 23 24 25 27 28</index></_>
    <_>
      <sv_count>5</sv_count>
      <rho>1.1446590747502774e+00</rho>
      <alpha>
        2.8259988156584934e+00 1.9073262042349381e+02
        -4.2345246620388695e+00 -1.4324037282617630e+02
        -4.6083721750937173e+01</alpha>
      <index>
        17 21 32 33 34</index></_>
    <_>
      <sv_count>6</sv_count>
      <rho>3.9496975996811767e+00</rho>
      <alpha>
        6.8377871169950708e+01 2.2605296492578495e+02
        -8.3379427563721919e+01 -1.2390328069796043e+02
        -1.5593620369093127e+01 -7.1554507464960253e+01</alpha>
      <index>
        18 20 35 37 38 41</index></_>
    <_>
      <sv_count>6</sv_count>
      <rho>-4.6073763455342887e-01</rho>
      <alpha>
        2.4836304609752144e+01 5.8258858828160221e+01
        3.5491267807751484e+01 -5.9712915615389825e+01
        -3.3889326121929933e+01 -2.4984189508344059e+01</alpha>
      <index>
        18 20 21 44 46 48</index></_>
    <_>
      <sv_count>5</sv_count>
      <rho>2.1286279633646199e-01</rho>
      <alpha>
        1.5829500914929438e+01 3.4817134837254336e+01
        -1.8269440634463834e+01 -2.1021988902663942e+01
        -1.1355206215056041e+01</alpha>
      <index>
        17 21 49 52 53</index></_>
    <_>
      <sv_count>7</sv_count>
      <rho>4.6831017395756762e-03</rho>
      <alpha>
        4.0421560303289318e+01 7.5276746677798752e+00
        1.0966862065690579e+02 -2.1607302700058611e+01
        -8.6076350192979646e+01 -3.9838571238880427e+01
        -1.0095631496056320e+01</alpha>
      <index>
        15 20 21 55 56 57 59</index></_>
    <_>
      <sv_count>10</sv_count>
      <rho>3.2641868497024444e+00</rho>
      <alpha>
        3.1250000000000000e+02 2.7915099862157291e+02
        3.1250000000000000e+02 3.1250000000000000e+02
        -3.1250000000000000e+02 -1.1053071132428420e+02
        -2.7844845727416362e+02 -2.7620087595871559e+02
        -2.1706888461980768e+01 -2.1726406560242884e+02</alpha>
      <index>
        15 18 19 21 62 63 64 65 66 68</index></_>
    <_>
      <sv_count>5</sv_count>
      <rho>7.6352821560441364e-01</rho>
      <alpha>
        2.5653252894611729e+01 8.5060931063700721e+01
        -1.5035992927532622e+01 -2.9893372409612525e+01
        -6.5784818621167332e+01</alpha>
      <index>
        25 28 32 33 34</index></_>
    <_>
      <sv_count>9</sv_count>
      <rho>1.5060592673970004e+00</rho>
      <alpha>
        6.8934991570775113e+00 7.7033869405896347e+00
        8.5839903460779126e+01 5.4583456899273912e+01
        -4.7983087049890592e+01 -5.8131225487934728e+01
        -1.8215438867963478e+01 -2.2658702574877858e+00
        -2.8424624794443613e+01</alpha>
      <index>
        24 25 27 28 35 36 37 38 41</index></_>
    <_>
      <sv_count>6</sv_count>
      <rho>3.8302353739569535e-03</rho>
      <alpha>
        1.2328335895000436e+01 6.0963691047909890e+01
        7.3761226842026019e+01 -8.8878824639974127e+01
        -1.0679286655312271e+01 -4.7495142489650000e+01</alpha>
      <index>
        26 27 28 44 46 48</index></_>
    <_>
      <sv_count>5</sv_count>
      <rho>-1.4107667729477635e-01</rho>
      <alpha>
        1.3766780674646497e+00 2.1440494725539956e+01
        9.1200911007974312e+00 -3.0468433507718139e+01
        -1.4688303860838945e+00</alpha>
      <index>
        23 25 26 52 53</index></_>
    <_>
      <sv_count>7</sv_count>
      <rho>-5.0207144943581494e-01</rho>
      <alpha>
        5.2873659534719359e+01 1.7952128811746974e+01
        1.0307562383566793e+01 6.2444079186419501e+01
        -7.1616390814627323e+01 -2.4811074420377121e+01
        -4.7149964681448168e+01</alpha>
      <index>
        23 26 27 28 56 59 61</index></_>
    <_>
      <sv_count>8</sv_count>
      <rho>-2.6340185824832614e+00</rho>
      <alpha>
        3.8987075347812663e+01 2.7726443014471511e+02
        1.3734483927944060e+01 2.1602136898976400e+02
        3.1250000000000000e+02 -3.1250000000000000e+02
        -3.1250000000000000e+02 -2.3350735841023575e+02</alpha>
      <index>
        23 24 25 26 28 63 64 68</index></_>
    <_>
      <sv_count>5</sv_count>
      <rho>1.1507774687247652e+00</rho>
      <alpha>
        9.3957475946589177e+00 7.1422876390304125e+01
        -2.4390215181736266e+00 -6.0069135510828190e+01
        -1.8310466955961285e+01</alpha>
      <index>
        32 34 35 36 38</index></_>
    <_>
      <sv_count>5</sv_count>
      <rho>-6.3104512854295386e-02</rho>
      <alpha>
        8.9390145544710844e+00 1.6179106507081342e+00
        3.9668511892649683e+01 -1.8499580979357276e+01
        -3.1725856118471636e+01</alpha>
      <index>
        32 33 34 42 44</index></_>
    <_>
      <sv_count>9</sv_count>
      <rho>3.3509793563697161e+00</rho>
      <alpha>
        3.1250000000000000e+02 6.5627359758913482e+00
        1.1693477462349276e+02 1.1110182582154236e+02
        -3.1250000000000000e+02 -1.1955392905558007e+02
        -6.6476780974267712e+01 -4.6754409120789418e+01
        -1.8142172702893233e+00</alpha>
      <index>
        29 30 31 33 50 51 52 53 54</index></_>
    <_>
      <sv_count>8</sv_count>
      <rho>-1.1044048017063528e+00</rho>
      <alpha>
        8.0972318921845972e+00 5.2189732597523161e+01
        3.4129197120642921e+01 3.1636478155475434e+01
        -2.6246461067285772e+01 -9.1258451748054810e+01
        -1.3780530177175327e+00 -7.1696739327680206e+00</alpha>
      <index>
        30 32 33 34 55 57 58 60</index></_>
    <_>
      <sv_count>5</sv_count>
      <rho>-4.0930752671876292e-02</rho>
      <alpha>
        4.9882224845936477e+01 3.3739356351149858e+01
        -1.8436544022331336e+01 -5.0653032064521149e+01
        -1.4532005110233834e+01</alpha>
      <index>
        33 34 62 63 65</index></_>
    <_>
      <sv_count>9</sv_count>
      <rho>-9.8205693269565462e+00</rho>
      <alpha>
        1.6893645152123298e+01 3.1250000000000000e+02
        1.5116862706844481e+02 1.8261510336923948e+02
        1.4060168871546000e+02 -3.1250000000000000e+02
        -2.6959360551047104e+02 -1.1525598777832651e+00
        -2.2053289891701320e+02</alpha>
      <index>
        35 36 39 40 41 44 45 46 47</index></_>
    <_>
      <sv_count>6</sv_count>
      <rho>-3.7308199966889743e-01</rho>
      <alpha>
        1.0498748380506285e+01 4.8950269757113025e+00
        1.1426834278786733e+00 1.2048890333201721e+01
        -9.9507238831031692e+00 -1.8634625234194811e+01</alpha>
      <index>
        35 38 40 41 52 53</index></_>
    <_>
      <sv_count>5</sv_count>
      <rho>-1.0490131059436847e+00</rho>
      <alpha>
        7.2623069679800224e+01 1.0650366185932154e+02
        -6.5486212321157655e+00 -6.1550593693450196e+01
        -1.1102751661355582e+02</alpha>
      <index>
        35 36 55 56 61</index></_>
    <_>
      <sv_count>5</sv_count>
      <rho>-5.7604907518247517e-01</rho>
      <alpha>
        3.4144355374391814e+01 3.5541241202622288e+01
        3.3733997769267624e+01 -2.0826081299738643e+01
        -8.2593513046543094e+01</alpha>
      <index>
        35 36 41 62 64</index></_>
    <_>
      <sv_count>6</sv_count>
      <rho>7.9556611662833662e-02</rho>
      <alpha>
        1.5005201728767794e+01 2.8141301527894771e+00
        9.7688378436424568e+00 -2.1656082337294666e+00
        -1.9670886007562414e+00 -2.3455472890714010e+01</alpha>
      <index>
        42 46 48 49 52 53</index></_>
    <_>
      <sv_count>5</sv_count>
      <rho>2.5438480603449670e-01</rho>
      <alpha>
        2.6774069752706897e-01 1.0653233053376381e+02
        2.6719560849675219e+01 -4.8594449978962366e+01
        -8.4925182102003717e+01</alpha>
      <index>
        43 44 48 56 61</index></_>
    <_>
      <sv_count>7</sv_count>
      <rho>-1.9551324142067208e-01</rho>
      <alpha>
        9.5509562615607138e+00 3.0798902070328879e+01
        1.1083000061782517e+01 4.3521260708029452e+01
        -1.2164626086881274e+01 -5.5215743669858355e+01
        -2.7573749344961932e+01</alpha>
      <index>
        43 44 46 48 62 63 64</index></_>
    <_>
      <sv_count>7</sv_count>
      <rho>-5.8729552749101221e-01</rho>
      <alpha>
        9.9349656946176834e-01 6.1761461788702903e+00
        2.5643213345910087e+01 2.2745245220298862e+01
        -4.5625128805128981e+00 -2.4874191262192159e+01
        -2.6121397171835952e+01</alpha>
      <index>
        50 51 52 53 58 59 60</index></_>
    <_>
      <sv_count>4</sv_count>
      <rho>3.9850926776063827e-01</rho>
      <alpha>
        4.1944618301169442e+01 -8.0897288988306073e+00
        -2.1211024605545617e+01 -1.2643864796793229e+01</alpha>
      <index>
        52 62 65 66</index></_>
    <_>
      <sv_count>7</sv_count>
      <rho>3.5777365880542350e-01</rho>
      <alpha>
        3.6492832449631045e+01 6.7681962171687829e+01
        5.0342814994235958e+01 1.4233634642461638e+01
        -2.7947122020771261e+01 -4.5267123629547328e+01
        -9.5536998607697925e+01</alpha>
      <index>
        55 56 59 61 62 63 66</index></_></decision_functions></my_svm>
</opencv_storage>
